{"learner":{"attributes":{"scikit_learn":"{\"_estimator_type\": \"classifier\"}"},"feature_names":["age_years","gender","height","weight","ap_hi","ap_lo","cholesterol","gluc","smoke","alco","active","bmi"],"feature_types":["int","int","int","float","int","int","int","int","int","int","int","float"],"gradient_booster":{"model":{"gbtree_model_param":{"num_parallel_tree":"1","num_trees":"150"},"iteration_indptr":[0,1,2,3,4,5,6,7,8,9,10,11,12,13,14,15,16,17,18,19,20,21,22,23,24,25,26,27,28,29,30,31,32,33,34,35,36,37,38,39,40,41,42,43,44,45,46,47,48,49,50,51,52,53,54,55,56,57,58,59,60,61,62,63,64,65,66,67,68,69,70,71,72,73,74,75,76,77,78,79,80,81,82,83,84,85,86,87,88,89,90,91,92,93,94,95,96,97,98,99,100,101,102,103,104,105,106,107,108,109,110,111,112,113,114,115,116,117,118,119,120,121,122,123,124,125,126,127,128,129,130,131,132,133,134,135,136,137,138,139,140,141,142,143,144,145,146,147,148,149,150],"tree_info":[0,0,0,0,0,0,0,0,0,0,0,0,0,0,0,0,0,0,0,0,0,0,0,0,0,0,0,0,0,0,0,0,0,0,0,0,0,0,0,0,0,0,0,0,0,0,0,0,0,0,0,0,0,0,0,0,0,0,0,0,0,0,0,0,0,0,0,0,0,0,0,0,0,0,0,0,0,0,0,0,0,0,0,0,0,0,0,0,0,0,0,0,0,0,0,0,0,0,0,0,0,0,0,0,0,0,0,0,0,0,0,0,0,0,0,0,0,0,0,0,0,0,0,0,0,0,0,0,0,0,0,0,0,0,0,0,0,0,0,0,0,0,0,0,0,0,0,0,0,0],"trees":[{"base_weights":[2.675958E-3,-4.323983E-1,1.0966656E0,-7.9691243E-1,8.6048365E-2,1.0196384E0,1.3296677E0,-1.1729988E0,-6.23549E-1,-1.1555733E-1,5.612248E-1,9.083512E-1,1.1210601E0,1.3530685E0,1.096563E0,-1.46101E0,-1.0129188E0,-1.1520185E0,-5.1397216E-1,-2.438394E-1,2.3862623E-1,3.8649377E-1,7.227966E-1,2.596767E-1,9.3903476E-1,1.089215E0,1.2705518E0,1.3734262E0,9.607603E-1,1.2422879E0,6.71077E-1,-1.5819471E0,-1.2630087E0,-1.2594934E0,-8.597973E-1,-1.3370823E0,-1.0016595E0,-6.277834E-1,-7.7805854E-2,-5.767345E-1,-1.3586375E-1,1.4028136E-1,5.976402E-1,-4.1307786E-1,4.2939028E-1,5.632996E-1,8.7460387E-1,4.4009867E-1,-3.337939E-1,8.339386E-1,1.0070009E0,1.0135449E0,1.174011E0,1.3249397E0,9.456642E-1,1.3760136E0,3.4723375E-2,1.0272436E0,-3.875374E-2,7.469003E-1,1.4166653E0,1.1150068E0,3.923229E-1,-1.713334E-1,-1.4710818E-1,-1.3000923E-1,-8.137599E-2,-1.2934145E-1,-8.466361E-2,-9.552173E-2,-6.858042E-2,-1.4398244E-1,-1.2126141E-1,-1.18875556E-1,-8.11384E-2,-6.640188E-2,-4.4667833E-3,-1.686784E-2,3.827391E-2,-8.722305E-2,-4.4030126E-2,-1.849874E-2,1.7814523E-2,4.7991816E-2,4.863294E-3,7.558817E-2,4.173525E-2,-8.3839424E-2,-8.230129E-3,7.666264E-2,3.0028388E-2,2.00418E-2,6.520913E-2,8.020566E-2,1.3588826E-1,-1.754375E-2,5.684042E-2,-4.9279943E-2,3.4723375E-2,8.4355E-2,1.7345723E-3,1.0450999E-1,7.9219215E-2,1.0415918E-2,1.02134764E-1,1.20598935E-1,9.265388E-2,1.3811027E-1,1.11025214E-1,1.1939448E-1,3.668655E-2,9.4503984E-2,1.3850968E-1,1.6189244E-3,1.1348005E-1,1.3507995E-1,3.668655E-2,1.4677885E-1,1.9507626E-2,1.9507626E-2,1.3507995E-1,-3.269159E-2,9.596326E-2],"categories":[],"categories_nodes":[],"categories_segments":[],"categories_sizes":[],"default_left":[0,0,0,0,0,0,0,0,0,0,0,0,0,0,0,0,0,0,0,0,0,0,0,0,0,0,0,0,0,0,0,0,0,0,0,0,0,0,0,0,0,0,0,0,0,0,0,0,0,0,0,0,0,0,0,0,0,0,0,0,0,0,0,0,0,0,0,0,0,0,0,0,0,0,0,0,0,0,0,0,0,0,0,0,0,0,0,0,0,0,0,0,0,0,0,0,0,0,0,0,0,0,0,0,0,0,0,0,0,0,0,0,0,0,0,0,0,0,0,0,0,0,0],"id":0,"left_children":[1,3,5,7,9,11,13,15,17,19,21,23,25,27,29,31,33,35,37,39,41,43,45,47,49,51,53,55,57,59,61,63,65,67,69,71,73,75,77,79,81,83,85,87,89,91,93,95,97,99,101,103,105,107,109,111,-1,113,-1,115,117,119,121,-1,-1,-1,-1,-1,-1,-1,-1,-1,-1,-1,-1,-1,-1,-1,-1,-1,-1,-1,-1,-1,-1,-1,-1,-1,-1,-1,-1,-1,-1,-1,-1,-1,-1,-1,-1,-1,-1,-1,-1,-1,-1,-1,-1,-1,-1,-1,-1,-1,-1,-1,-1,-1,-1,-1,-1,-1,-1,-1,-1],"loss_changes":[5.222692E3,1.4836934E3,5.4678955E1,2.9982275E2,3.106332E2,2.5514648E1,2.7297363E0,6.5526245E1,1.8224707E2,1.03514755E2,2.698944E1,2.2170288E1,4.4505615E0,4.2524414E0,3.8626175E0,1.0380493E1,3.4309387E1,1.3726868E1,1.2985907E2,6.0023438E1,2.1310001E1,1.616748E1,1.1630554E1,5.7409835E0,6.8380737E0,5.338257E0,2.4441223E0,1.2772217E0,3.7816238E0,3.714119E0,2.222849E0,2.0964966E0,2.2902832E0,3.9039917E0,8.998169E0,1.3197021E0,9.812134E0,4.3819702E1,2.2776674E1,1.6113281E1,1.9528372E1,1.482272E1,3.3928986E0,3.342249E0,1.9055634E1,7.8270035E0,7.859314E0,3.2979383E0,1.55164E0,3.3442078E0,4.4747314E0,3.760376E0,2.6293945E0,5.975647E-1,4.375574E0,1.2703857E0,0E0,3.9232445E0,0E0,3.2908478E0,2.1958542E0,1.4174061E0,6.3315716E0,0E0,0E0,0E0,0E0,0E0,0E0,0E0,0E0,0E0,0E0,0E0,0E0,0E0,0E0,0E0,0E0,0E0,0E0,0E0,0E0,0E0,0E0,0E0,0E0,0E0,0E0,0E0,0E0,0E0,0E0,0E0,0E0,0E0,0E0,0E0,0E0,0E0,0E0,0E0,0E0,0E0,0E0,0E0,0E0,0E0,0E0,0E0,0E0,0E0,0E0,0E0,0E0,0E0,0E0,0E0,0E0,0E0,0E0,0E0,0E0],"parents":[2147483647,0,0,1,1,2,2,3,3,4,4,5,5,6,6,7,7,8,8,9,9,10,10,11,11,12,12,13,13,14,14,15,15,16,16,17,17,18,18,19,19,20,20,21,21,22,22,23,23,24,24,25,25,26,26,27,27,28,28,29,29,30,30,31,31,32,32,33,33,34,34,35,35,36,36,37,37,38,38,39,39,40,40,41,41,42,42,43,43,44,44,45,45,46,46,47,47,48,48,49,49,50,50,51,51,52,52,53,53,54,54,55,55,57,57,59,59,60,60,61,61,62,62],"right_children":[2,4,6,8,10,12,14,16,18,20,22,24,26,28,30,32,34,36,38,40,42,44,46,48,50,52,54,56,58,60,62,64,66,68,70,72,74,76,78,80,82,84,86,88,90,92,94,96,98,100,102,104,106,108,110,112,-1,114,-1,116,118,120,122,-1,-1,-1,-1,-1,-1,-1,-1,-1,-1,-1,-1,-1,-1,-1,-1,-1,-1,-1,-1,-1,-1,-1,-1,-1,-1,-1,-1,-1,-1,-1,-1,-1,-1,-1,-1,-1,-1,-1,-1,-1,-1,-1,-1,-1,-1,-1,-1,-1,-1,-1,-1,-1,-1,-1,-1,-1,-1,-1,-1],"split_conditions":[8.6E1,5.5E1,9.9E1,7.8E1,6.1E1,5.5E1,3E0,4.5E1,4.3E1,7.95E1,7.05E1,5.78E1,9.05E1,1.19E2,9.45E1,6.95E1,6.41E1,6.83E1,8.23E1,7.9E1,2E0,5.07E1,6.3E1,1.63E2,7.32E1,6E1,3E0,1.41E2,1.8E2,7.02E1,5.5E1,5.95E1,9.45E1,2E0,7.65E1,4.1E1,4.1E1,3E0,1.02E2,6.15E1,2E0,1E0,5.8E1,8E1,1.58E2,8E1,3E0,5E1,5.3E1,1.79E2,1.76E2,9E1,1.72E2,1.74E2,1.7E2,4.1E1,3.4723375E-2,4.5E1,-3.875374E-2,6.05E1,6.4E1,1.01E2,5.9E1,-1.713334E-1,-1.4710818E-1,-1.3000923E-1,-8.137599E-2,-1.2934145E-1,-8.466361E-2,-9.552173E-2,-6.858042E-2,-1.4398244E-1,-1.2126141E-1,-1.18875556E-1,-8.11384E-2,-6.640188E-2,-4.4667833E-3,-1.686784E-2,3.827391E-2,-8.722305E-2,-4.4030126E-2,-1.849874E-2,1.7814523E-2,4.7991816E-2,4.863294E-3,7.558817E-2,4.173525E-2,-8.3839424E-2,-8.230129E-3,7.666264E-2,3.0028388E-2,2.00418E-2,6.520913E-2,8.020566E-2,1.3588826E-1,-1.754375E-2,5.684042E-2,-4.9279943E-2,3.4723375E-2,8.4355E-2,1.7345723E-3,1.0450999E-1,7.9219215E-2,1.0415918E-2,1.02134764E-1,1.20598935E-1,9.265388E-2,1.3811027E-1,1.11025214E-1,1.1939448E-1,3.668655E-2,9.4503984E-2,1.3850968E-1,1.6189244E-3,1.1348005E-1,1.3507995E-1,3.668655E-2,1.4677885E-1,1.9507626E-2,1.9507626E-2,1.3507995E-1,-3.269159E-2,9.596326E-2],"split_indices":[5,0,5,5,0,0,7,0,0,3,3,3,3,5,3,3,3,3,3,5,7,3,0,2,3,0,7,3,2,3,0,3,3,7,3,0,0,7,3,3,7,10,0,5,2,5,7,3,0,2,2,5,2,2,2,0,0,0,0,3,0,3,0,0,0,0,0,0,0,0,0,0,0,0,0,0,0,0,0,0,0,0,0,0,0,0,0,0,0,0,0,0,0,0,0,0,0,0,0,0,0,0,0,0,0,0,0,0,0,0,0,0,0,0,0,0,0,0,0,0,0,0,0],"split_type":[0,0,0,0,0,0,0,0,0,0,0,0,0,0,0,0,0,0,0,0,0,0,0,0,0,0,0,0,0,0,0,0,0,0,0,0,0,0,0,0,0,0,0,0,0,0,0,0,0,0,0,0,0,0,0,0,0,0,0,0,0,0,0,0,0,0,0,0,0,0,0,0,0,0,0,0,0,0,0,0,0,0,0,0,0,0,0,0,0,0,0,0,0,0,0,0,0,0,0,0,0,0,0,0,0,0,0,0,0,0,0,0,0,0,0,0,0,0,0,0,0,0,0],"sum_hessian":[1.0970812E4,7.84965E3,3.1211619E3,4.608751E3,3.240899E3,2.3497456E3,7.7141644E2,1.4523427E3,3.1564082E3,2.2760034E3,9.648955E2,1.1251282E3,1.2246173E3,6.9667456E2,7.4741905E1,5.159441E2,9.3639856E2,5.4044147E2,2.6159666E3,1.671069E3,6.0493445E2,4.6519962E2,4.9969586E2,5.124445E1,1.0738837E3,1.0163899E3,2.0822745E2,6.599285E2,3.674602E1,5.4244125E1,2.049778E1,3.159658E2,1.9997833E2,3.5596146E2,5.8043713E2,2.3872414E2,3.0171732E2,2.0742754E3,5.4169135E2,4.0820578E2,1.2628632E3,4.7594846E2,1.2898602E2,2.3247482E1,4.4195212E2,2.4597336E2,2.5372252E2,3.9495724E1,1.1748728E1,4.2695377E2,6.4692993E2,5.439411E2,4.7244882E2,1.7573097E2,3.249648E1,6.579287E2,1.9997834E0,3.524618E1,1.4998375E0,1.5498322E1,3.8745804E1,6.749269E0,1.3748511E1,1.3798506E2,1.7798073E2,1.8298018E2,1.699816E1,3.269646E2,2.8996859E1,3.7195972E2,2.0847742E2,1.24986465E2,1.1373768E2,1.4948381E2,1.522335E2,1.9527885E3,1.2148684E2,4.5295093E2,8.874039E1,1.2723622E2,2.8096957E2,1.0923817E3,1.7048154E2,1.0023914E2,3.7570932E2,6.6992744E1,6.1993286E1,9.498971E0,1.3748511E1,1.2098689E2,3.2096524E2,4.8994694E1,1.9697867E2,2.2297585E2,3.074667E1,6.749269E0,3.2746452E1,9.748944E0,1.9997834E0,4.2195428E2,4.9994583E0,5.4619086E2,1.0073909E2,4.7494855E0,5.391916E2,4.1495505E2,5.7493774E1,1.3498538E2,4.0745586E1,2.1997618E1,1.0498863E1,1.5748294E1,6.421804E2,3.499621E0,3.1746561E1,4.9994583E0,1.0498863E1,3.6995995E1,1.7498105E0,1.7498105E0,4.9994583E0,6.249323E0,7.499188E0],"tree_param":{"num_deleted":"0","num_feature":"12","num_nodes":"123","size_leaf_vector":"1"}},{"base_weights":[8.268901E-3,-6.5887076E-1,9.988773E-1,-9.506732E-1,-1.8433787E-1,3.9252132E-1,1.3002855E0,-1.0083735E0,3.323578E-1,-2.9529032E-1,7.540361E-1,2.0047149E-1,1.229481E0,1.2262859E0,1.3803248E0,-1.2997538E0,-8.809591E-1,9.6052045E-1,-1.15575075E-1,-4.3190885E-1,8.965099E-2,3.8933942E-1,1.0913733E0,8.198617E-2,4.927921E-1,1.2625676E0,4.9577045E-1,1.2583416E0,9.490911E-1,-7.007279E-2,1.3826617E0,-1.354212E0,-7.756856E-1,-1.1131055E0,-7.689715E-1,-1.5483159E-1,1.0100416E0,-2.9782706E-1,5.950525E-1,-7.44262E-1,-3.2607046E-1,-4.53076E-1,1.4536376E-1,1.2888014E-1,9.163209E-1,4.2754766E-1,1.1291367E0,1.5449041E-2,3.8838002E-1,5.368265E-1,-6.6015823E-3,1.3353964E0,1.1325837E0,-8.144996E-1,9.908273E-1,1.208746E0,1.3564279E0,-1.4086074E-1,9.719292E-1,9.260423E-1,1.3889614E0,-1.500873E-1,-1.2465896E-1,-9.804826E-2,-4.886038E-2,-1.3195254E-1,-9.778112E-2,-4.986323E-2,-8.379751E-2,-7.424944E-2,4.9580798E-2,5.645706E-2,1.1811247E-1,-1.0899641E-1,-1.9956913E-2,1.0040895E-1,-6.289705E-2,-9.214782E-2,-5.2040484E-2,-9.104912E-4,-4.0430244E-2,-1.2792334E-1,-3.2096833E-2,4.597879E-2,6.2704994E-3,7.136804E-2,-5.7776826E-3,-1.41258715E-2,9.930068E-2,7.8442305E-2,-8.135722E-2,1.2715705E-1,8.9658104E-2,-5.058766E-2,6.586108E-3,4.6164837E-2,-7.330847E-3,6.0204428E-2,2.6876662E-2,7.890988E-2,-1.3770885E-2,1.3643645E-1,9.5259205E-2,1.5171747E-1,1.0106764E-1,-3.3358686E-2,-1.09359555E-1,1.25949E-1,3.150627E-2,5.69459E-2,1.2159647E-1,1.3610493E-1,-2.699693E-3,-6.9160946E-2,3.1973884E-2,9.072913E-2,1.3553081E-1,1.2820205E-1,1.9945746E-2,1.4039229E-1,1.23081446E-1],"categories":[],"categories_nodes":[],"categories_segments":[],"categories_sizes":[],"default_left":[0,0,0,0,0,0,0,0,0,0,0,0,0,0,0,0,0,0,0,0,0,0,0,0,0,0,0,0,0,0,0,0,0,0,0,0,0,0,0,0,0,0,0,0,0,0,0,0,0,0,0,0,0,0,0,0,0,0,0,0,0,0,0,0,0,0,0,0,0,0,0,0,0,0,0,0,0,0,0,0,0,0,0,0,0,0,0,0,0,0,0,0,0,0,0,0,0,0,0,0,0,0,0,0,0,0,0,0,0,0,0,0,0,0,0,0,0,0,0,0,0],"id":1,"left_children":[1,3,5,7,9,11,13,15,17,19,21,23,25,27,29,31,33,35,37,39,41,43,45,47,49,51,53,55,57,-1,59,61,63,65,67,69,71,73,75,77,79,81,83,85,87,89,91,93,95,97,99,101,103,105,107,109,111,113,115,117,119,-1,-1,-1,-1,-1,-1,-1,-1,-1,-1,-1,-1,-1,-1,-1,-1,-1,-1,-1,-1,-1,-1,-1,-1,-1,-1,-1,-1,-1,-1,-1,-1,-1,-1,-1,-1,-1,-1,-1,-1,-1,-1,-1,-1,-1,-1,-1,-1,-1,-1,-1,-1,-1,-1,-1,-1,-1,-1,-1,-1],"loss_changes":[7.270458E3,9.101199E2,8.086299E2,3.0168018E2,2.6097314E2,2.3627167E2,1.5820801E1,1.4348242E2,4.9613907E1,1.1785927E2,3.2188477E1,4.14539E1,6.036133E0,1.2537109E1,7.838135E0,3.271472E1,6.968799E1,4.207245E0,1.3593731E1,5.442639E1,1.7835182E1,1.7579298E1,2.9555664E0,1.7397718E1,7.597641E0,9.6725464E-1,9.556115E0,5.0839844E0,4.225586E0,0E0,2.7734375E0,1.5024048E1,6.206238E0,2.3307861E1,3.3788696E1,1.8918035E0,4.6951523E0,6.251503E0,1.1385153E1,1.6092834E1,3.0668503E1,5.5870943E0,1.3842461E1,9.587223E0,3.5857925E0,4.62097E0,3.1383972E0,1.8493551E1,5.1847153E0,5.3864594E0,3.1309464E0,5.000305E-1,3.1853638E0,2.0529461E-1,1.4623652E0,3.5859375E0,2.9519043E0,1.2978469E0,2.7603302E0,5.4877663E0,1.5612793E0,0E0,0E0,0E0,0E0,0E0,0E0,0E0,0E0,0E0,0E0,0E0,0E0,0E0,0E0,0E0,0E0,0E0,0E0,0E0,0E0,0E0,0E0,0E0,0E0,0E0,0E0,0E0,0E0,0E0,0E0,0E0,0E0,0E0,0E0,0E0,0E0,0E0,0E0,0E0,0E0,0E0,0E0,0E0,0E0,0E0,0E0,0E0,0E0,0E0,0E0,0E0,0E0,0E0,0E0,0E0,0E0,0E0,0E0,0E0,0E0],"parents":[2147483647,0,0,1,1,2,2,3,3,4,4,5,5,6,6,7,7,8,8,9,9,10,10,11,11,12,12,13,13,14,14,15,15,16,16,17,17,18,18,19,19,20,20,21,21,22,22,23,23,24,24,25,25,26,26,27,27,28,28,30,30,31,31,32,32,33,33,34,34,35,35,36,36,37,37,38,38,39,39,40,40,41,41,42,42,43,43,44,44,45,45,46,46,47,47,48,48,49,49,50,50,51,51,52,52,53,53,54,54,55,55,56,56,57,57,58,58,59,59,60,60],"right_children":[2,4,6,8,10,12,14,16,18,20,22,24,26,28,30,32,34,36,38,40,42,44,46,48,50,52,54,56,58,-1,60,62,64,66,68,70,72,74,76,78,80,82,84,86,88,90,92,94,96,98,100,102,104,106,108,110,112,114,116,118,120,-1,-1,-1,-1,-1,-1,-1,-1,-1,-1,-1,-1,-1,-1,-1,-1,-1,-1,-1,-1,-1,-1,-1,-1,-1,-1,-1,-1,-1,-1,-1,-1,-1,-1,-1,-1,-1,-1,-1,-1,-1,-1,-1,-1,-1,-1,-1,-1,-1,-1,-1,-1,-1,-1,-1,-1,-1,-1,-1,-1],"split_conditions":[1.3E2,5.5E1,1.39E2,3E0,3E0,3E0,1.5E2,4.5E1,3E0,6.1E1,7.02E1,5.9E1,1.79E2,3E0,1.36E2,2E0,1.2E2,4.1E1,8.05E1,1.19E2,5.62E1,6.1E1,1.06E2,2E0,1E0,3E0,8.43E1,2E0,4.3E1,-7.007279E-2,5.3E1,1.13E2,7.32E1,6.41E1,1E0,1.11E2,6.63E1,4.1E1,1.72E2,6.95E1,1E0,1.06E2,1E0,1.57E2,5.32E1,9.2E1,3E0,4.3E1,1E0,8.8E1,1E0,1E0,1.57E2,7.95E1,5.8E1,1.48E2,1.35E2,7.02E1,6.3E1,1.58E2,3E0,-1.500873E-1,-1.2465896E-1,-9.804826E-2,-4.886038E-2,-1.3195254E-1,-9.778112E-2,-4.986323E-2,-8.379751E-2,-7.424944E-2,4.9580798E-2,5.645706E-2,1.1811247E-1,-1.0899641E-1,-1.9956913E-2,1.0040895E-1,-6.289705E-2,-9.214782E-2,-5.2040484E-2,-9.104912E-4,-4.0430244E-2,-1.2792334E-1,-3.2096833E-2,4.597879E-2,6.2704994E-3,7.136804E-2,-5.7776826E-3,-1.41258715E-2,9.930068E-2,7.8442305E-2,-8.135722E-2,1.2715705E-1,8.9658104E-2,-5.058766E-2,6.586108E-3,4.6164837E-2,-7.330847E-3,6.0204428E-2,2.6876662E-2,7.890988E-2,-1.3770885E-2,1.3643645E-1,9.5259205E-2,1.5171747E-1,1.0106764E-1,-3.3358686E-2,-1.09359555E-1,1.25949E-1,3.150627E-2,5.69459E-2,1.2159647E-1,1.3610493E-1,-2.699693E-3,-6.9160946E-2,3.1973884E-2,9.072913E-2,1.3553081E-1,1.2820205E-1,1.9945746E-2,1.4039229E-1,1.23081446E-1],"split_indices":[4,0,4,6,6,6,4,0,7,0,3,0,2,7,2,6,4,0,3,4,3,0,4,6,8,7,3,6,0,0,3,4,3,3,10,4,3,0,2,3,10,4,10,2,3,3,7,0,8,3,10,8,2,3,0,2,3,3,0,2,7,0,0,0,0,0,0,0,0,0,0,0,0,0,0,0,0,0,0,0,0,0,0,0,0,0,0,0,0,0,0,0,0,0,0,0,0,0,0,0,0,0,0,0,0,0,0,0,0,0,0,0,0,0,0,0,0,0,0,0,0],"split_type":[0,0,0,0,0,0,0,0,0,0,0,0,0,0,0,0,0,0,0,0,0,0,0,0,0,0,0,0,0,0,0,0,0,0,0,0,0,0,0,0,0,0,0,0,0,0,0,0,0,0,0,0,0,0,0,0,0,0,0,0,0,0,0,0,0,0,0,0,0,0,0,0,0,0,0,0,0,0,0,0,0,0,0,0,0,0,0,0,0,0,0,0,0,0,0,0,0,0,0,0,0,0,0,0,0,0,0,0,0,0,0,0,0,0,0,0,0,0,0,0,0],"sum_hessian":[1.0999279E4,6.572959E3,4.4263203E3,4.0695098E3,2.503449E3,1.4704517E3,2.9558687E3,3.8945774E3,1.7493231E2,2.2393552E3,2.6409396E2,1.1970212E3,2.7343045E2,1.5443633E3,1.4115054E3,1.1820896E3,2.7124878E3,7.234055E1,1.0259176E2,1.6526835E3,5.8667163E2,1.2793597E2,1.3615799E2,8.5268555E2,3.443357E2,2.6094247E2,1.2487977E1,1.3811085E3,1.6325475E2,1.2480614E0,1.4102573E3,1.0693813E3,1.1270825E2,8.797851E2,1.8327029E3,2.9849412E0,6.935561E1,8.211335E1,2.0478409E1,4.1674432E2,1.2359392E3,5.3953194E1,5.3271844E2,8.64519E1,4.148407E1,7.992006E0,1.2816599E2,7.0141516E2,1.5127036E2,3.1636502E2,2.7970665E1,1.6129614E2,9.964633E1,3.2475092E0,9.240468E0,9.261445E2,4.5496408E2,3.244463E0,1.6001028E2,2.1205729E1,1.3890516E3,4.4712433E2,6.22257E2,6.437172E1,4.8336533E1,3.4486615E2,5.349189E2,3.7434317E2,1.4583596E3,1.4941957E0,1.4907455E0,2.0438152E1,4.8917465E1,7.94769E0,7.416566E1,1.5483801E1,4.994607E0,2.3086446E2,1.8587988E2,2.448833E2,9.9105585E2,6.2409735E0,4.7712223E1,1.0994359E2,4.2277484E2,2.0234207E1,6.621769E1,2.7477438E0,3.8736324E1,6.492969E0,1.4990368E0,7.67134E1,5.145258E1,6.1049503E1,6.4036566E2,1.3055226E2,2.0718092E1,2.5345467E2,6.291037E1,3.2468073E0,2.4723858E1,1.4756528E2,1.3730866E1,2.1228806E1,7.841753E1,1.9987261E0,1.2487831E0,5.993745E0,3.2467227E0,1.1232954E1,9.149115E2,4.5346542E2,1.4986328E0,1.249212E0,1.9952509E0,1.3980556E2,2.0204725E1,1.3719595E1,7.486133E0,1.2618016E3,1.2724996E2],"tree_param":{"num_deleted":"0","num_feature":"12","num_nodes":"121","size_leaf_vector":"1"}},{"base_weights":[-5.82074E-4,-5.972122E-1,8.885615E-1,-8.615082E-1,-1.6944695E-1,3.5212135E-1,1.1575063E0,-9.150172E-1,3.2920718E-1,-2.6953542E-1,6.9829357E-1,1.8442659E-1,1.0907273E0,1.0899941E0,1.2306302E0,-1.1684084E0,-8.026334E-1,9.361185E-1,-9.323158E-2,-4.097292E-1,1.2653637E-1,8.683232E-2,9.279013E-1,7.5006455E-2,4.4665036E-1,7.749266E-1,1.1325314E0,1.1292603E0,9.2741954E-1,5.705722E-1,1.2353352E0,-1.2326677E0,-5.779617E-1,-9.989629E-1,-7.086482E-1,7.882664E-2,1.077747E0,-6.4000666E-1,7.374502E-2,-7.148297E-1,-3.0666712E-1,8.5974164E-2,8.211808E-1,-1.3709119E-1,6.2688136E-1,6.8095016E-1,1.1214355E0,-8.874169E-2,3.152372E-1,4.8976097E-1,-9.6097566E-2,1.0249648E0,3.2679418E-1,1.2596534E0,9.446926E-1,1.0827003E0,1.2310988E0,9.456726E-1,4.345453E-1,2.3506358E-2,8.23584E-1,1.2532326E0,1.0405731E0,-1.3781595E-1,-1.1288629E-1,-9.497581E-2,-3.918226E-2,-1.3085854E-1,-9.320091E-2,-7.965926E-2,-4.4536587E-2,-7.83012E-2,5.270073E-2,-6.1415803E-2,1.1230021E-1,-8.0589555E-2,6.91134E-2,-1.0088618E-2,6.746339E-2,-8.848102E-2,-4.984368E-2,-3.587186E-2,2.1119906E-2,-5.645019E-2,1.2612404E-2,1.0069054E-1,-6.997978E-3,-9.42347E-2,-4.951181E-3,7.25674E-3,7.9296745E-2,4.0172514E-2,1.0664207E-1,1.14310436E-1,1.6970653E-2,-1.5150058E-2,2.4158677E-2,-3.972177E-2,3.5533376E-2,-4.7149006E-2,5.0692625E-2,1.0662377E-1,-3.3133607E-2,1.1165724E-1,6.1473664E-2,-2.8285969E-2,1.3249688E-1,1.02550186E-1,1.3547952E-1,9.977282E-2,4.4705417E-2,1.0858917E-1,1.3209394E-2,1.2344358E-1,1.2106706E-2,1.2840284E-1,9.167986E-2,-3.1374298E-2,9.573709E-2,-1.1308304E-1,7.614013E-2,1.45241935E-2,9.900754E-2,-9.414946E-3,1.2548986E-1,-9.288048E-3,1.05532765E-1],"categories":[],"categories_nodes":[],"categories_segments":[],"categories_sizes":[],"default_left":[0,0,0,0,0,0,0,0,0,0,0,0,0,0,0,0,0,0,0,0,0,0,0,0,0,0,0,0,0,0,0,0,0,0,0,0,0,0,0,0,0,0,0,0,0,0,0,0,0,0,0,0,0,0,0,0,0,0,0,0,0,0,0,0,0,0,0,0,0,0,0,0,0,0,0,0,0,0,0,0,0,0,0,0,0,0,0,0,0,0,0,0,0,0,0,0,0,0,0,0,0,0,0,0,0,0,0,0,0,0,0,0,0,0,0,0,0,0,0,0,0,0,0,0,0,0,0],"id":2,"left_children":[1,3,5,7,9,11,13,15,17,19,21,23,25,27,29,31,33,35,37,39,41,43,45,47,49,51,53,55,57,59,61,63,65,67,69,71,73,75,77,79,81,83,85,87,89,91,93,95,97,99,101,103,105,107,109,111,113,115,117,119,121,123,125,-1,-1,-1,-1,-1,-1,-1,-1,-1,-1,-1,-1,-1,-1,-1,-1,-1,-1,-1,-1,-1,-1,-1,-1,-1,-1,-1,-1,-1,-1,-1,-1,-1,-1,-1,-1,-1,-1,-1,-1,-1,-1,-1,-1,-1,-1,-1,-1,-1,-1,-1,-1,-1,-1,-1,-1,-1,-1,-1,-1,-1,-1,-1,-1],"loss_changes":[5.7902334E3,7.383262E2,6.3193994E2,2.575232E2,2.169461E2,1.8126262E2,1.3068848E1,1.09091064E2,4.478911E1,1.2434146E2,3.6194664E1,3.4259453E1,2.6984558E0,8.697144E0,3.6230469E0,4.4246338E1,4.874048E1,8.613976E0,9.515843E0,5.1772003E1,1.6438818E1,8.7492285E0,8.209045E0,3.3248318E1,8.275909E0,3.5681057E0,4.470398E0,4.4749756E0,2.3109741E0,1.6030111E0,3.515625E0,1.45703125E1,7.8069496E0,1.671466E1,4.1686646E1,4.752998E0,5.3915634E0,5.937435E0,8.498986E0,1.4887955E1,3.343863E1,1.4558638E1,5.401493E0,3.5826325E0,1.892107E0,8.72382E0,1.9447327E0,1.0463728E1,9.926125E0,5.617592E0,7.6578608E0,1.3623238E-1,8.859646E0,1.6932526E0,2.1846237E0,2.4320068E0,1.2471313E0,1.6647644E0,5.251194E0,4.8950453E0,7.580261E-1,2.9499512E0,2.1427612E0,0E0,0E0,0E0,0E0,0E0,0E0,0E0,0E0,0E0,0E0,0E0,0E0,0E0,0E0,0E0,0E0,0E0,0E0,0E0,0E0,0E0,0E0,0E0,0E0,0E0,0E0,0E0,0E0,0E0,0E0,0E0,0E0,0E0,0E0,0E0,0E0,0E0,0E0,0E0,0E0,0E0,0E0,0E0,0E0,0E0,0E0,0E0,0E0,0E0,0E0,0E0,0E0,0E0,0E0,0E0,0E0,0E0,0E0,0E0,0E0,0E0,0E0,0E0,0E0],"parents":[2147483647,0,0,1,1,2,2,3,3,4,4,5,5,6,6,7,7,8,8,9,9,10,10,11,11,12,12,13,13,14,14,15,15,16,16,17,17,18,18,19,19,20,20,21,21,22,22,23,23,24,24,25,25,26,26,27,27,28,28,29,29,30,30,31,31,32,32,33,33,34,34,35,35,36,36,37,37,38,38,39,39,40,40,41,41,42,42,43,43,44,44,45,45,46,46,47,47,48,48,49,49,50,50,51,51,52,52,53,53,54,54,55,55,56,56,57,57,58,58,59,59,60,60,61,61,62,62],"right_children":[2,4,6,8,10,12,14,16,18,20,22,24,26,28,30,32,34,36,38,40,42,44,46,48,50,52,54,56,58,60,62,64,66,68,70,72,74,76,78,80,82,84,86,88,90,92,94,96,98,100,102,104,106,108,110,112,114,116,118,120,122,124,126,-1,-1,-1,-1,-1,-1,-1,-1,-1,-1,-1,-1,-1,-1,-1,-1,-1,-1,-1,-1,-1,-1,-1,-1,-1,-1,-1,-1,-1,-1,-1,-1,-1,-1,-1,-1,-1,-1,-1,-1,-1,-1,-1,-1,-1,-1,-1,-1,-1,-1,-1,-1,-1,-1,-1,-1,-1,-1,-1,-1,-1,-1,-1,-1],"split_conditions":[1.3E2,5.5E1,1.39E2,3E0,3E0,3E0,1.5E2,4.5E1,3E0,6.1E1,2.4391058E1,5.9E1,2.3875433E1,2E0,6.8E1,2E0,1.19E2,2.289282E1,1.16E2,1.19E2,3.5209496E1,6.1E1,5.9E1,9E1,1E0,3E0,8.1E1,2E0,1.146E2,1.52E2,3E0,1.13E2,4.1E1,2.2038567E1,2.8344671E1,1.11E2,4E1,8.1E1,2.9387754E1,6.95E1,3.295068E1,2.093664E1,6.4E1,1.03E2,1E0,3.0116213E1,1.11E2,2E0,2.1926126E1,2.0415224E1,1E0,2.34375E1,8.1E1,2.7734375E1,1E0,1.47E2,1.48E2,2.3183674E1,1.21E2,5.6E1,1E0,4.3E1,2.093664E1,-1.3781595E-1,-1.1288629E-1,-9.497581E-2,-3.918226E-2,-1.3085854E-1,-9.320091E-2,-7.965926E-2,-4.4536587E-2,-7.83012E-2,5.270073E-2,-6.1415803E-2,1.1230021E-1,-8.0589555E-2,6.91134E-2,-1.0088618E-2,6.746339E-2,-8.848102E-2,-4.984368E-2,-3.587186E-2,2.1119906E-2,-5.645019E-2,1.2612404E-2,1.0069054E-1,-6.997978E-3,-9.42347E-2,-4.951181E-3,7.25674E-3,7.9296745E-2,4.0172514E-2,1.0664207E-1,1.14310436E-1,1.6970653E-2,-1.5150058E-2,2.4158677E-2,-3.972177E-2,3.5533376E-2,-4.7149006E-2,5.0692625E-2,1.0662377E-1,-3.3133607E-2,1.1165724E-1,6.1473664E-2,-2.8285969E-2,1.3249688E-1,1.02550186E-1,1.3547952E-1,9.977282E-2,4.4705417E-2,1.0858917E-1,1.3209394E-2,1.2344358E-1,1.2106706E-2,1.2840284E-1,9.167986E-2,-3.1374298E-2,9.573709E-2,-1.1308304E-1,7.614013E-2,1.45241935E-2,9.900754E-2,-9.414946E-3,1.2548986E-1,-9.288048E-3,1.05532765E-1],"split_indices":[4,0,4,6,6,6,4,0,7,0,11,0,11,7,5,6,4,11,4,4,11,0,0,5,8,7,5,6,3,4,7,4,0,11,11,4,0,5,11,3,11,11,0,4,10,11,3,6,11,11,10,11,5,11,8,4,4,11,3,0,10,3,11,0,0,0,0,0,0,0,0,0,0,0,0,0,0,0,0,0,0,0,0,0,0,0,0,0,0,0,0,0,0,0,0,0,0,0,0,0,0,0,0,0,0,0,0,0,0,0,0,0,0,0,0,0,0,0,0,0,0,0,0,0,0,0,0],"split_type":[0,0,0,0,0,0,0,0,0,0,0,0,0,0,0,0,0,0,0,0,0,0,0,0,0,0,0,0,0,0,0,0,0,0,0,0,0,0,0,0,0,0,0,0,0,0,0,0,0,0,0,0,0,0,0,0,0,0,0,0,0,0,0,0,0,0,0,0,0,0,0,0,0,0,0,0,0,0,0,0,0,0,0,0,0,0,0,0,0,0,0,0,0,0,0,0,0,0,0,0,0,0,0,0,0,0,0,0,0,0,0,0,0,0,0,0,0,0,0,0,0,0,0,0,0,0,0],"sum_hessian":[1.0912882E4,6.5308804E3,4.382001E3,4.036131E3,2.4947495E3,1.4640674E3,2.9179338E3,3.8627751E3,1.7335579E2,2.2373718E3,2.5737756E2,1.1941863E3,2.698811E2,1.525451E3,1.3924828E3,1.1839443E3,2.6788308E3,7.064509E1,1.027107E2,1.6524391E3,5.8493274E2,7.063907E1,1.867385E2,8.43499E2,3.506873E2,3.3833096E1,2.36048E2,1.2238993E3,3.015517E2,1.0721138E1,1.3817616E3,1.0667594E3,1.171849E2,8.641159E2,1.814715E3,1.0236866E1,6.0408226E1,2.3365623E1,7.934508E1,4.1574622E2,1.2366929E3,5.537231E2,3.1209644E1,5.0461918E1,2.0177153E1,8.403178E1,1.02706726E2,5.019715E2,3.4152753E2,3.249723E2,2.5715006E1,2.089013E1,1.2942965E1,1.3737317E2,9.867483E1,8.478831E2,3.760162E2,2.89897E2,1.16547E1,3.7360032E0,6.9851346E0,1.2604956E3,1.2126597E2,4.3907684E2,6.276826E2,3.7726707E1,7.945819E1,1.5033932E2,7.1377655E2,1.3588063E3,4.5590875E2,3.2466195E0,6.9902463E0,1.2462158E0,5.916201E1,2.1127289E1,2.238334E0,6.2122925E1,1.722215E1,2.311135E2,1.8463272E2,1.1240231E3,1.1266986E2,3.1431717E1,5.222914E2,2.5719604E1,5.4900403E0,3.9925127E0,4.6469406E1,4.983062E0,1.5194091E1,4.991604E1,3.4115734E1,1.0022376E2,2.4829645E0,4.2228348E2,7.968801E1,1.7722315E1,3.238052E2,5.2369394E0,3.1973535E2,3.7337277E0,2.1981277E1,1.5669224E1,5.220906E0,8.480167E0,4.4627976E0,4.309401E1,9.427917E1,8.826329E1,1.0411534E1,8.449042E2,2.9789076E0,3.7477747E2,1.2387421E0,1.9375647E1,2.7052136E2,4.9582167E0,6.6964836E0,1.2492352E0,2.486768E0,1.7455487E0,5.239586E0,1.4880978E0,1.2590076E3,1.4902323E0,1.19775734E2],"tree_param":{"num_deleted":"0","num_feature":"12","num_nodes":"127","size_leaf_vector":"1"}},{"base_weights":[-6.2686284E-3,-5.547247E-1,8.133145E-1,-8.597613E-1,-2.373502E-1,2.984638E-1,1.062151E0,-1.0506935E0,-7.5222665E-1,-3.4509912E-1,1.6515113E-1,2.1935324E-1,6.3327885E-1,9.98456E-1,1.1351986E0,-1.1451238E0,-9.097158E-1,-9.524349E-1,-6.518449E-1,-3.9038038E-1,1.5752466E-1,-5.789264E-1,1.9531408E-1,-3.050057E-1,2.5499925E-1,6.508735E-1,-5.527861E-1,1.1270535E0,9.674286E-1,7.93316E-2,1.1378485E0,-1.2860923E0,-1.0348774E0,-9.262603E-1,-3.5817954E-1,-9.6175194E-1,1.1939418E-1,-7.098427E-1,-1.7097607E-1,-6.215678E-1,-3.0956948E-1,-1.6210254E-1,2.4854834E-1,-2.4343525E-1,-9.481104E-1,5.018879E-2,3.4827954E-1,-2.1236148E-1,-9.450561E-1,2.9270843E-1,-8.04778E-2,2.540327E-2,6.866658E-1,1.5293914E-2,-8.714945E-2,-7.384518E-2,1.1373436E0,9.248025E-1,1.1005625E0,7.75218E-2,-6.4146414E-2,4.553025E-1,1.1423106E0,-1.2984948E-1,-5.6988724E-2,-1.141827E-1,-8.043941E-2,-1.07176974E-1,-8.5024126E-2,-6.9722734E-2,1.03348136E-1,-1.2681852E-1,-9.0275146E-2,-7.711344E-2,-5.525322E-2,1.3940113E-2,-2.6265576E-2,-9.055914E-2,-5.5874743E-2,-5.432676E-3,-3.757879E-2,-7.106044E-2,8.579977E-3,1.7831212E-2,4.8396356E-2,-6.534702E-2,7.1413866E-3,7.793244E-3,-1.0980701E-1,-1.496453E-2,2.7948055E-2,6.566392E-2,2.5965719E-2,-4.4153545E-2,1.4150687E-2,-1.1736441E-1,-9.4050495E-3,2.054797E-2,4.1871514E-2,-1.2003875E-1,-2.113838E-3,1.0183382E-1,-2.2057904E-2,7.0158005E-2,1.0228838E-2,-4.838116E-3,1.14350654E-1,5.1348396E-2,9.356535E-2,7.5785182E-3,1.1274952E-1,-4.928938E-3,1.02467716E-1,-2.5923846E-2,1.1438086E-1],"categories":[],"categories_nodes":[],"categories_segments":[],"categories_sizes":[],"default_left":[0,0,0,0,0,0,0,0,0,0,0,0,0,0,0,0,0,0,0,0,0,0,0,0,0,0,0,0,0,0,0,0,0,0,0,0,0,0,0,0,0,0,0,0,0,0,0,0,0,0,0,0,0,0,0,0,0,0,0,0,0,0,0,0,0,0,0,0,0,0,0,0,0,0,0,0,0,0,0,0,0,0,0,0,0,0,0,0,0,0,0,0,0,0,0,0,0,0,0,0,0,0,0,0,0,0,0,0,0,0,0,0,0,0,0],"id":3,"left_children":[1,3,5,7,9,11,13,15,17,19,21,23,25,27,29,31,33,35,37,39,41,43,45,47,49,51,53,55,57,59,61,63,65,67,69,71,-1,73,75,77,79,81,83,85,87,89,91,93,95,97,99,101,103,-1,-1,-1,105,107,109,-1,-1,111,113,-1,-1,-1,-1,-1,-1,-1,-1,-1,-1,-1,-1,-1,-1,-1,-1,-1,-1,-1,-1,-1,-1,-1,-1,-1,-1,-1,-1,-1,-1,-1,-1,-1,-1,-1,-1,-1,-1,-1,-1,-1,-1,-1,-1,-1,-1,-1,-1,-1,-1,-1,-1],"loss_changes":[4.8553784E3,6.262743E2,5.5447095E2,6.695117E1,1.3765945E2,3.727192E1,1.2448486E1,1.4749756E1,4.1867554E1,5.7031677E1,1.5165474E1,2.1460426E1,5.981987E0,5.1644287E0,3.6934814E0,9.648987E0,4.0544434E0,1.5223694E1,3.9238647E1,4.2713043E1,6.0796456E0,3.036643E0,1.4307568E1,4.1442156E0,1.35813675E1,5.935997E0,1.1406832E0,6.572876E0,6.189453E0,2.7346263E0,3.5881348E0,1.9775085E0,8.980347E0,4.244049E0,8.095378E0,1.1535522E1,0E0,1.1713806E1,4.3963523E0,1.0089569E1,2.8775482E1,6.3997893E0,2.5917559E0,2.0046403E0,1.9649086E0,1.5268046E1,8.410194E0,5.3580275E0,1.6355467E0,1.0505699E1,7.2233505E0,3.9939559E0,2.120201E0,0E0,0E0,0E0,2.2286682E0,3.8410645E0,8.270294E0,0E0,0E0,3.045334E0,3.1087646E0,0E0,0E0,0E0,0E0,0E0,0E0,0E0,0E0,0E0,0E0,0E0,0E0,0E0,0E0,0E0,0E0,0E0,0E0,0E0,0E0,0E0,0E0,0E0,0E0,0E0,0E0,0E0,0E0,0E0,0E0,0E0,0E0,0E0,0E0,0E0,0E0,0E0,0E0,0E0,0E0,0E0,0E0,0E0,0E0,0E0,0E0,0E0,0E0,0E0,0E0,0E0,0E0],"parents":[2147483647,0,0,1,1,2,2,3,3,4,4,5,5,6,6,7,7,8,8,9,9,10,10,11,11,12,12,13,13,14,14,15,15,16,16,17,17,18,18,19,19,20,20,21,21,22,22,23,23,24,24,25,25,26,26,27,27,28,28,29,29,30,30,31,31,32,32,33,33,34,34,35,35,37,37,38,38,39,39,40,40,41,41,42,42,43,43,44,44,45,45,46,46,47,47,48,48,49,49,50,50,51,51,52,52,56,56,57,57,58,58,61,61,62,62],"right_children":[2,4,6,8,10,12,14,16,18,20,22,24,26,28,30,32,34,36,38,40,42,44,46,48,50,52,54,56,58,60,62,64,66,68,70,72,-1,74,76,78,80,82,84,86,88,90,92,94,96,98,100,102,104,-1,-1,-1,106,108,110,-1,-1,112,114,-1,-1,-1,-1,-1,-1,-1,-1,-1,-1,-1,-1,-1,-1,-1,-1,-1,-1,-1,-1,-1,-1,-1,-1,-1,-1,-1,-1,-1,-1,-1,-1,-1,-1,-1,-1,-1,-1,-1,-1,-1,-1,-1,-1,-1,-1,-1,-1,-1,-1,-1,-1],"split_conditions":[1.3E2,5.3E1,1.34E2,4.5E1,6.1E1,6.1E1,1.5E2,2.5711662E1,1.18E2,3.3333332E1,2.0549887E1,2.2060354E1,1.84E2,4.9E1,1.8314459E1,1.11E2,1.8E2,1.21E2,3.2E1,1.19E2,5.5E1,2E0,6.3E1,5.9E1,1E0,2.2145329E1,2.4221453E1,1.87883E1,6.1E1,5E1,6.8E1,1.81E2,4.3E1,4.1E1,3.232323E1,2.1799309E1,1.1939418E-1,2.6827421E1,1E0,2.2038567E1,1E0,3.4680935E1,3.864447E1,7.1E1,1.6E2,2.612861E1,1E0,5.4E1,8.6E1,8.9E1,4.1E1,1.9157087E1,4.037461E1,1.5293914E-2,-8.714945E-2,-7.384518E-2,6.1E1,1.39E2,1.48E2,7.75218E-2,-6.4146414E-2,6E1,1.36E2,-1.2984948E-1,-5.6988724E-2,-1.141827E-1,-8.043941E-2,-1.07176974E-1,-8.5024126E-2,-6.9722734E-2,1.03348136E-1,-1.2681852E-1,-9.0275146E-2,-7.711344E-2,-5.525322E-2,1.3940113E-2,-2.6265576E-2,-9.055914E-2,-5.5874743E-2,-5.432676E-3,-3.757879E-2,-7.106044E-2,8.579977E-3,1.7831212E-2,4.8396356E-2,-6.534702E-2,7.1413866E-3,7.793244E-3,-1.0980701E-1,-1.496453E-2,2.7948055E-2,6.566392E-2,2.5965719E-2,-4.4153545E-2,1.4150687E-2,-1.1736441E-1,-9.4050495E-3,2.054797E-2,4.1871514E-2,-1.2003875E-1,-2.113838E-3,1.0183382E-1,-2.2057904E-2,7.0158005E-2,1.0228838E-2,-4.838116E-3,1.14350654E-1,5.1348396E-2,9.356535E-2,7.5785182E-3,1.1274952E-1,-4.928938E-3,1.02467716E-1,-2.5923846E-2,1.1438086E-1],"split_indices":[4,0,4,0,0,0,4,11,4,11,11,11,2,0,11,4,2,5,11,4,0,1,0,0,8,11,11,11,0,0,5,2,0,0,11,11,0,11,10,11,10,11,11,5,2,11,10,0,5,5,0,11,11,0,0,0,5,4,2,0,0,0,2,0,0,0,0,0,0,0,0,0,0,0,0,0,0,0,0,0,0,0,0,0,0,0,0,0,0,0,0,0,0,0,0,0,0,0,0,0,0,0,0,0,0,0,0,0,0,0,0,0,0,0,0],"split_type":[0,0,0,0,0,0,0,0,0,0,0,0,0,0,0,0,0,0,0,0,0,0,0,0,0,0,0,0,0,0,0,0,0,0,0,0,0,0,0,0,0,0,0,0,0,0,0,0,0,0,0,0,0,0,0,0,0,0,0,0,0,0,0,0,0,0,0,0,0,0,0,0,0,0,0,0,0,0,0,0,0,0,0,0,0,0,0,0,0,0,0,0,0,0,0,0,0,0,0,0,0,0,0,0,0,0,0,0,0,0,0,0,0,0,0],"sum_hessian":[1.07996E4,6.470161E3,4.329438E3,3.2983376E3,3.1718235E3,1.4114014E3,2.9180366E3,1.1851982E3,2.1131394E3,2.5021458E3,6.696776E2,1.1429895E3,2.684119E2,1.566647E3,1.3513896E3,7.0550824E2,4.7968997E2,7.0284625E2,1.4102932E3,2.2955625E3,2.0658336E2,2.5380602E1,6.4429706E2,7.227373E1,1.0707157E3,2.6493298E2,3.478905E0,2.9765317E2,1.2689939E3,3.4605017E0,1.3479292E3,3.04934E2,4.0057428E2,4.650601E2,1.4629906E1,7.0035803E2,2.4882116E0,1.2580796E3,1.5221367E2,5.92842E2,1.7027205E3,4.561758E1,1.6096577E2,1.4166431E1,1.121417E1,3.3130295E2,3.129941E2,6.42986E1,7.975125E0,9.626382E2,1.08077545E2,1.4432621E1,2.5050035E2,1.2441268E0,2.2347782E0,1.2446523E0,2.964085E2,9.6725055E2,3.017433E2,1.7222581E0,1.7382435E0,9.423979E0,1.3385052E3,2.9894418E2,5.989812E0,2.7091122E2,1.2966306E2,1.5509372E2,3.0996637E2,1.2165133E1,2.4647722E0,1.0976622E2,5.905918E2,9.02531E2,3.5554852E2,3.4590076E1,1.1762359E2,1.0494569E2,4.8789633E2,3.511218E2,1.3515986E3,1.3618713E1,3.1998865E1,1.2533072E2,3.563505E1,5.6859674E0,8.480464E0,1.4912386E0,9.722932E0,1.7720834E2,1.540946E2,6.844204E1,2.4455206E2,3.887466E1,2.5423939E1,5.987658E0,1.9874669E0,5.70404E2,3.922342E2,4.47082E0,1.0360672E2,2.2421303E0,1.2190491E1,2.4407071E2,6.429647E0,1.4972157E0,2.949113E2,2.6103249E1,9.4114734E2,7.8248563E0,2.9391843E2,5.4804873E0,3.9434915E0,1.2453333E0,1.3372599E3],"tree_param":{"num_deleted":"0","num_feature":"12","num_nodes":"115","size_leaf_vector":"1"}},{"base_weights":[-9.400599E-3,-5.102677E-1,7.3451006E-1,-7.9805905E-1,-2.186441E-1,2.7838242E-1,9.699477E-1,-1.0363168E0,-7.215361E-1,-3.3144483E-1,1.9372284E-1,1.2098249E-1,3.8615608E-1,9.9971193E-1,8.507771E-1,-1.1361166E0,-8.561244E-1,-9.1283625E-1,-6.216169E-1,-4.3096673E-1,-8.3434165E-2,4.7097892E-1,1.1960164E-1,1.6182633E-1,-4.5643836E-1,1.0150258E-3,4.1211405E-1,9.5024806E-1,1.055798E0,7.846543E-1,1.0191034E0,-1.3903205E0,-1.0969208E0,-9.1356206E-1,-3.7612462E-1,-1.0788425E0,-8.1255406E-1,-6.844071E-1,-2.7067387E-1,-6.511181E-1,-3.555955E-1,-1.6111936E-1,2.01966E-1,-1.1512376E-1,4.987731E-1,-1.5691797E-1,2.1475348E-1,-1.6569516E-1,2.110328E-1,-7.531025E-1,-1.1360445E-1,1.0279047E0,-8.122976E-2,3.1217217E-1,5.024742E-1,3.1881037E-1,9.5830894E-1,-3.028647E-2,1.057683E0,-2.6321054E-2,7.896465E-1,2.8248185E-1,1.0311263E0,-1.4267842E-1,-6.7975156E-2,-1.1021496E-1,-3.142556E-2,-9.24826E-2,6.052935E-2,-7.307334E-2,6.3179634E-3,-1.088228E-1,2.9207194E-2,-1.02887884E-1,-6.9711775E-2,-7.0943564E-2,-1.998341E-2,1.5674027E-2,-3.8174458E-2,-9.297895E-2,-5.6675047E-2,-6.4507374E-3,-4.3251667E-2,-4.495177E-2,-7.080341E-3,1.6067937E-2,6.4851046E-2,2.903609E-2,6.8037406E-2,-6.4808577E-3,-7.195962E-2,1.6797379E-2,6.533062E-2,-7.702552E-3,-7.821991E-2,3.813235E-2,1.2025527E-2,2.3852678E-2,-8.977599E-2,-9.453633E-2,1.5830664E-2,2.730226E-2,1.2515527E-1,-5.5966873E-2,6.8515963E-3,1.954442E-2,5.87533E-2,5.1453795E-2,-5.700564E-2,-2.2797186E-2,6.752077E-2,9.311117E-2,1.0777563E-1,6.3545026E-2,1.0649494E-1,1.0098453E-1,7.504988E-2,6.184674E-2,-1.662228E-2,1.1261548E-1,9.393842E-2],"categories":[],"categories_nodes":[],"categories_segments":[],"categories_sizes":[],"default_left":[0,0,0,0,0,0,0,0,0,0,0,0,0,0,0,0,0,0,0,0,0,0,0,0,0,0,0,0,0,0,0,0,0,0,0,0,0,0,0,0,0,0,0,0,0,0,0,0,0,0,0,0,0,0,0,0,0,0,0,0,0,0,0,0,0,0,0,0,0,0,0,0,0,0,0,0,0,0,0,0,0,0,0,0,0,0,0,0,0,0,0,0,0,0,0,0,0,0,0,0,0,0,0,0,0,0,0,0,0,0,0,0,0,0,0,0,0,0,0,0,0],"id":4,"left_children":[1,3,5,7,9,11,13,15,17,19,21,23,25,27,29,31,33,35,37,39,41,43,45,47,49,51,53,55,57,59,61,63,65,67,69,71,73,75,77,79,81,83,85,-1,87,89,91,93,95,97,99,101,103,105,107,109,111,-1,113,-1,115,117,119,-1,-1,-1,-1,-1,-1,-1,-1,-1,-1,-1,-1,-1,-1,-1,-1,-1,-1,-1,-1,-1,-1,-1,-1,-1,-1,-1,-1,-1,-1,-1,-1,-1,-1,-1,-1,-1,-1,-1,-1,-1,-1,-1,-1,-1,-1,-1,-1,-1,-1,-1,-1,-1,-1,-1,-1,-1,-1],"loss_changes":[3.9921614E3,5.372202E2,4.627058E2,5.8003174E1,1.480653E2,2.4874596E1,9.233887E0,1.3073364E1,4.611609E1,6.1638885E1,1.4001154E1,1.41899E1,8.713043E0,5.291992E0,5.59906E0,3.4528809E0,7.4437866E0,1.3037964E1,3.5236572E1,2.9352844E1,1.592484E1,7.0648746E0,1.4270475E1,9.055809E0,3.9626255E0,4.8160634E0,7.217041E0,5.8826904E0,3.020752E0,2.38974E0,1.1150513E0,6.625824E-1,1.444458E0,4.8637238E0,5.013575E0,4.328644E0,1.2395813E1,1.6387207E1,1.1719803E1,1.0135757E1,2.9761124E1,1.46582985E1,2.7314482E0,0E0,5.185467E0,7.162751E0,8.157673E0,3.9669685E0,7.483515E0,3.2495346E0,4.5920067E0,3.7216997E-1,3.8216796E0,1.2431904E1,5.8204956E0,3.4323273E0,2.8946533E0,0E0,2.5545654E0,0E0,2.8227234E0,6.9490147E-1,3.0096436E-1,0E0,0E0,0E0,0E0,0E0,0E0,0E0,0E0,0E0,0E0,0E0,0E0,0E0,0E0,0E0,0E0,0E0,0E0,0E0,0E0,0E0,0E0,0E0,0E0,0E0,0E0,0E0,0E0,0E0,0E0,0E0,0E0,0E0,0E0,0E0,0E0,0E0,0E0,0E0,0E0,0E0,0E0,0E0,0E0,0E0,0E0,0E0,0E0,0E0,0E0,0E0,0E0,0E0,0E0,0E0,0E0,0E0,0E0],"parents":[2147483647,0,0,1,1,2,2,3,3,4,4,5,5,6,6,7,7,8,8,9,9,10,10,11,11,12,12,13,13,14,14,15,15,16,16,17,17,18,18,19,19,20,20,21,21,22,22,23,23,24,24,25,25,26,26,27,27,28,28,29,29,30,30,31,31,32,32,33,33,34,34,35,35,36,36,37,37,38,38,39,39,40,40,41,41,42,42,44,44,45,45,46,46,47,47,48,48,49,49,50,50,51,51,52,52,53,53,54,54,55,55,56,56,58,58,60,60,61,61,62,62],"right_children":[2,4,6,8,10,12,14,16,18,20,22,24,26,28,30,32,34,36,38,40,42,44,46,48,50,52,54,56,58,60,62,64,66,68,70,72,74,76,78,80,82,84,86,-1,88,90,92,94,96,98,100,102,104,106,108,110,112,-1,114,-1,116,118,120,-1,-1,-1,-1,-1,-1,-1,-1,-1,-1,-1,-1,-1,-1,-1,-1,-1,-1,-1,-1,-1,-1,-1,-1,-1,-1,-1,-1,-1,-1,-1,-1,-1,-1,-1,-1,-1,-1,-1,-1,-1,-1,-1,-1,-1,-1,-1,-1,-1,-1,-1,-1,-1,-1,-1,-1,-1,-1],"split_conditions":[1.3E2,5.3E1,1.36E2,4.3E1,6.1E1,5.4E1,2E0,2.6078972E1,1.17E2,2.819692E1,1E0,1.79E2,2.2145329E1,1.5E2,1.52E2,2.0700817E1,2E0,2.38054E1,3.081854E1,1.2E2,3.452709E1,1.9157087E1,2.3711845E1,4.3E1,1.82E2,1.8314459E1,5.9E1,1.48E2,1.38E2,6.1E1,7.1E1,1.8E2,1.21E2,1.84E2,3.0405293E1,1.86E2,4.7E1,3E0,1E0,2.2038567E1,1E0,7.9E1,1.71E2,-1.1512376E-1,6.3E1,2.3407509E1,3E0,1E0,4.9E1,2E0,2.3407509E1,5.6E1,2.020202E1,3.085321E1,1.84E2,8.1E1,6.1E1,-3.028647E-2,2.0415224E1,-2.6321054E-2,4.9E1,1.63E2,5.7E1,-1.4267842E-1,-6.7975156E-2,-1.1021496E-1,-3.142556E-2,-9.24826E-2,6.052935E-2,-7.307334E-2,6.3179634E-3,-1.088228E-1,2.9207194E-2,-1.02887884E-1,-6.9711775E-2,-7.0943564E-2,-1.998341E-2,1.5674027E-2,-3.8174458E-2,-9.297895E-2,-5.6675047E-2,-6.4507374E-3,-4.3251667E-2,-4.495177E-2,-7.080341E-3,1.6067937E-2,6.4851046E-2,2.903609E-2,6.8037406E-2,-6.4808577E-3,-7.195962E-2,1.6797379E-2,6.533062E-2,-7.702552E-3,-7.821991E-2,3.813235E-2,1.2025527E-2,2.3852678E-2,-8.977599E-2,-9.453633E-2,1.5830664E-2,2.730226E-2,1.2515527E-1,-5.5966873E-2,6.8515963E-3,1.954442E-2,5.87533E-2,5.1453795E-2,-5.700564E-2,-2.2797186E-2,6.752077E-2,9.311117E-2,1.0777563E-1,6.3545026E-2,1.0649494E-1,1.0098453E-1,7.504988E-2,6.184674E-2,-1.662228E-2,1.1261548E-1,9.393842E-2],"split_indices":[4,0,4,0,0,0,7,11,4,11,10,2,11,4,4,11,7,11,11,4,11,11,11,0,2,11,0,2,2,5,5,2,4,2,11,2,0,7,10,11,10,5,2,0,0,11,7,8,0,1,11,0,11,11,2,5,0,0,11,0,0,2,0,0,0,0,0,0,0,0,0,0,0,0,0,0,0,0,0,0,0,0,0,0,0,0,0,0,0,0,0,0,0,0,0,0,0,0,0,0,0,0,0,0,0,0,0,0,0,0,0,0,0,0,0,0,0,0,0,0,0],"split_type":[0,0,0,0,0,0,0,0,0,0,0,0,0,0,0,0,0,0,0,0,0,0,0,0,0,0,0,0,0,0,0,0,0,0,0,0,0,0,0,0,0,0,0,0,0,0,0,0,0,0,0,0,0,0,0,0,0,0,0,0,0,0,0,0,0,0,0,0,0,0,0,0,0,0,0,0,0,0,0,0,0,0,0,0,0,0,0,0,0,0,0,0,0,0,0,0,0,0,0,0,0,0,0,0,0,0,0,0,0,0,0,0,0,0,0,0,0,0,0,0,0],"sum_hessian":[1.0712319E4,6.4021406E3,4.3101787E3,3.2213682E3,3.1807727E3,1.4681073E3,2.8420713E3,7.800629E2,2.4413052E3,2.4977288E3,6.830439E2,5.975409E2,8.7056635E2,2.2681782E3,5.738932E2,4.986047E2,2.8145822E2,8.348359E2,1.6064692E3,1.7819349E3,7.157939E2,1.4295511E2,5.4008875E2,5.5873834E2,3.880258E1,5.5035664E1,8.155307E2,1.2147755E3,1.0534027E3,4.1610013E2,1.5779303E2,6.2004322E1,4.3660037E2,2.5057112E2,3.0887085E1,3.1071805E2,5.241178E2,1.3618577E3,2.4461168E2,4.525233E2,1.3294116E3,5.62986E2,1.5280788E2,1.7271858E0,1.4122792E2,1.3810228E2,4.0198645E2,7.2670616E1,4.8606772E2,2.0160458E1,1.8642124E1,3.228406E0,5.180726E1,3.8934952E2,4.2618118E2,1.582337E1,1.1989521E3,1.2382637E0,1.0521644E3,1.727701E0,4.1437244E2,2.9274664E0,1.5486555E2,5.8019054E1,3.9852684E0,4.3329745E2,3.302927E0,2.4911479E2,1.4563376E0,1.6723995E1,1.4163089E1,3.088101E2,1.9079617E0,1.7961348E2,3.4450433E2,1.2945302E3,6.7327484E1,5.0370075E1,1.9424161E2,1.0283442E2,3.4968884E2,2.7825742E2,1.0511543E3,1.3331267E2,4.2967337E2,1.4112003E2,1.1687856E1,6.696976E1,7.425817E1,1.1963365E2,1.846863E1,3.6448993E2,3.749653E1,6.451639E1,8.15423E0,1.6790047E2,3.1816724E2,2.48396E0,1.7676498E1,3.9826653E0,1.4659459E1,1.2454361E0,1.9829699E0,1.1697185E1,4.0110073E1,2.7463782E2,1.1471169E2,4.2195532E2,4.2258587E0,6.3861413E0,9.437229E0,9.8375433E2,2.1519783E2,1.9297203E1,1.0328672E3,5.880567E1,3.5556677E2,1.4576517E0,1.4698147E0,7.053183E1,8.433373E1],"tree_param":{"num_deleted":"0","num_feature":"12","num_nodes":"121","size_leaf_vector":"1"}},{"base_weights":[-1.7485251E-3,-4.5489067E-1,6.776672E-1,-7.139263E-1,-1.9408353E-1,2.6039377E-1,8.960715E-1,-9.1832364E-1,-6.238218E-1,-2.8383666E-1,1.3730901E-1,1.7840707E-1,4.484222E-1,8.339411E-1,9.657365E-1,-1.0634782E0,-8.1762475E-1,-6.63516E-1,-2.9309976E-1,-5.114921E-1,-2.0726089E-1,-1.6353434E-1,2.2341089E-1,8.6140394E-2,3.1691974E-1,3.886562E-1,5.822287E-1,8.591738E-1,6.0743046E-1,-1.291549E-1,9.6846145E-1,-1.0824015E0,-2.4065717E-1,-1.0046748E0,-6.872988E-1,-8.177627E-1,-5.8753365E-1,-5.708023E-1,-1.7307754E-1,-5.732308E-1,-9.61006E-2,2.2032883E-2,-2.6750264E-1,1.8078937E-1,-2.509915E-1,3.2120687E-1,-7.159734E-2,4.333658E-2,4.4155544E-1,6.552438E-1,2.3829682E-1,7.5545186E-1,3.4903055E-1,6.316262E-1,1.0225709E-1,3.538816E-1,8.664731E-1,5.689789E-1,1.2616866E0,2.4826055E-2,-4.278126E-2,1.00506E0,9.1513604E-1,-1.1104845E-1,-7.957312E-2,-2.3710302E-3,-7.6882474E-2,-1.05944276E-1,-4.2723652E-2,-7.014566E-2,6.552553E-2,-8.630613E-2,-4.1142806E-2,-3.946842E-2,-6.342446E-2,-3.1388607E-3,-6.903129E-2,7.723041E-3,-2.3920571E-2,-8.307989E-2,-4.7629055E-2,-1.7189045E-2,1.0535767E-1,-7.460808E-3,2.1336505E-2,-2.4162402E-2,-5.8842655E-2,-3.1153334E-2,3.351532E-2,-2.1017106E-2,-1.2040386E-1,1.8161971E-2,4.6201058E-2,-2.6978606E-2,1.0614868E-2,-3.244607E-2,7.443844E-3,4.8865665E-2,-4.7214694E-2,-1.6169293E-3,7.072803E-2,2.806285E-2,-2.4704454E-2,8.269168E-2,-1.5467191E-2,3.6100592E-2,-4.661857E-2,6.473338E-2,-2.198255E-2,-7.579394E-2,3.567075E-2,5.9701826E-2,-2.849542E-2,9.886726E-2,8.354628E-2,-3.5255574E-2,5.8888644E-2,4.120385E-2,1.3535821E-1,5.931089E-2,1.0110064E-1,9.8624684E-2,8.366727E-2],"categories":[],"categories_nodes":[],"categories_segments":[],"categories_sizes":[],"default_left":[0,0,0,0,0,0,0,0,0,0,0,0,0,0,0,0,0,0,0,0,0,0,0,0,0,0,0,0,0,0,0,0,0,0,0,0,0,0,0,0,0,0,0,0,0,0,0,0,0,0,0,0,0,0,0,0,0,0,0,0,0,0,0,0,0,0,0,0,0,0,0,0,0,0,0,0,0,0,0,0,0,0,0,0,0,0,0,0,0,0,0,0,0,0,0,0,0,0,0,0,0,0,0,0,0,0,0,0,0,0,0,0,0,0,0,0,0,0,0,0,0,0,0],"id":5,"left_children":[1,3,5,7,9,11,13,15,17,19,21,23,25,27,29,31,33,35,37,39,41,43,45,47,49,51,53,55,57,59,61,63,65,67,69,71,73,75,77,79,81,83,85,87,89,91,93,95,97,99,101,103,105,107,109,111,113,115,117,-1,-1,119,121,-1,-1,-1,-1,-1,-1,-1,-1,-1,-1,-1,-1,-1,-1,-1,-1,-1,-1,-1,-1,-1,-1,-1,-1,-1,-1,-1,-1,-1,-1,-1,-1,-1,-1,-1,-1,-1,-1,-1,-1,-1,-1,-1,-1,-1,-1,-1,-1,-1,-1,-1,-1,-1,-1,-1,-1,-1,-1,-1,-1],"loss_changes":[3.2552495E3,4.2837866E2,3.8530737E2,5.8028442E1,9.408876E1,2.234851E1,1.1212402E1,1.3329346E1,2.8837524E1,4.3275253E1,1.7509634E1,1.2941952E1,3.301239E0,7.908203E0,4.0112305E0,5.8828125E0,1.3396027E1,2.2651611E1,7.859766E0,1.5990784E1,2.5750656E1,4.5828032E0,1.5166029E1,9.267731E0,1.0626133E1,4.211769E0,3.116825E0,4.5794067E0,3.0872078E0,5.701688E-1,1.6164551E0,2.2189941E0,1.1454601E0,6.9830627E0,6.9931335E0,1.1587524E1,1.1693451E1,4.5954323E0,2.8018622E0,1.32000885E1,7.3401117E0,7.20341E0,1.2116814E1,2.4679823E0,4.437818E0,7.6674156E0,4.6608715E0,6.2693E0,3.0499268E0,2.6619797E0,6.859232E0,2.0247135E0,2.899414E0,1.7668571E0,3.2721238E0,3.36273E0,4.119873E0,2.8617973E0,3.3679962E-2,0E0,0E0,1.2630005E0,2.1880798E0,0E0,0E0,0E0,0E0,0E0,0E0,0E0,0E0,0E0,0E0,0E0,0E0,0E0,0E0,0E0,0E0,0E0,0E0,0E0,0E0,0E0,0E0,0E0,0E0,0E0,0E0,0E0,0E0,0E0,0E0,0E0,0E0,0E0,0E0,0E0,0E0,0E0,0E0,0E0,0E0,0E0,0E0,0E0,0E0,0E0,0E0,0E0,0E0,0E0,0E0,0E0,0E0,0E0,0E0,0E0,0E0,0E0,0E0,0E0,0E0],"parents":[2147483647,0,0,1,1,2,2,3,3,4,4,5,5,6,6,7,7,8,8,9,9,10,10,11,11,12,12,13,13,14,14,15,15,16,16,17,17,18,18,19,19,20,20,21,21,22,22,23,23,24,24,25,25,26,26,27,27,28,28,29,29,30,30,31,31,32,32,33,33,34,34,35,35,36,36,37,37,38,38,39,39,40,40,41,41,42,42,43,43,44,44,45,45,46,46,47,47,48,48,49,49,50,50,51,51,52,52,53,53,54,54,55,55,56,56,57,57,58,58,61,61,62,62],"right_children":[2,4,6,8,10,12,14,16,18,20,22,24,26,28,30,32,34,36,38,40,42,44,46,48,50,52,54,56,58,60,62,64,66,68,70,72,74,76,78,80,82,84,86,88,90,92,94,96,98,100,102,104,106,108,110,112,114,116,118,-1,-1,120,122,-1,-1,-1,-1,-1,-1,-1,-1,-1,-1,-1,-1,-1,-1,-1,-1,-1,-1,-1,-1,-1,-1,-1,-1,-1,-1,-1,-1,-1,-1,-1,-1,-1,-1,-1,-1,-1,-1,-1,-1,-1,-1,-1,-1,-1,-1,-1,-1,-1,-1,-1,-1,-1,-1,-1,-1,-1,-1,-1,-1],"split_conditions":[1.29E2,5.3E1,1.39E2,4.4E1,6.1E1,5.9E1,1.5E2,4.1E1,2E0,1.2E2,1.19E2,9E1,6.3E1,3E0,1.41E2,8.6E1,1.13E2,1.19E2,7.5E1,2E0,1E0,1E0,1.7E2,3E0,1E0,1.53E2,1.74E2,1.48E2,6.4E1,1.61E2,9.2E1,2E0,1.75E2,2E0,1.85E2,1.74E2,1E0,1E0,1E0,1.1E2,8.2E1,5.8E1,1E0,6.2E1,1.78E2,6.3E1,1.73E2,4.3E1,1.81E2,1.53E2,1.77E2,2E0,1.84E2,9.9E1,1.75E2,6.2E1,4.9E1,4.3E1,1.55E2,2.4826055E-2,-4.278126E-2,4.1E1,5.6E1,-1.1104845E-1,-7.957312E-2,-2.3710302E-3,-7.6882474E-2,-1.05944276E-1,-4.2723652E-2,-7.014566E-2,6.552553E-2,-8.630613E-2,-4.1142806E-2,-3.946842E-2,-6.342446E-2,-3.1388607E-3,-6.903129E-2,7.723041E-3,-2.3920571E-2,-8.307989E-2,-4.7629055E-2,-1.7189045E-2,1.0535767E-1,-7.460808E-3,2.1336505E-2,-2.4162402E-2,-5.8842655E-2,-3.1153334E-2,3.351532E-2,-2.1017106E-2,-1.2040386E-1,1.8161971E-2,4.6201058E-2,-2.6978606E-2,1.0614868E-2,-3.244607E-2,7.443844E-3,4.8865665E-2,-4.7214694E-2,-1.6169293E-3,7.072803E-2,2.806285E-2,-2.4704454E-2,8.269168E-2,-1.5467191E-2,3.6100592E-2,-4.661857E-2,6.473338E-2,-2.198255E-2,-7.579394E-2,3.567075E-2,5.9701826E-2,-2.849542E-2,9.886726E-2,8.354628E-2,-3.5255574E-2,5.8888644E-2,4.120385E-2,1.3535821E-1,5.931089E-2,1.0110064E-1,9.8624684E-2,8.366727E-2],"split_indices":[4,0,4,0,0,0,4,0,7,4,4,5,0,7,2,5,4,4,5,7,10,10,2,7,10,2,2,2,0,4,5,7,2,7,2,2,10,10,10,4,5,0,8,0,2,0,2,0,2,2,2,1,2,5,2,0,0,0,2,0,0,0,0,0,0,0,0,0,0,0,0,0,0,0,0,0,0,0,0,0,0,0,0,0,0,0,0,0,0,0,0,0,0,0,0,0,0,0,0,0,0,0,0,0,0,0,0,0,0,0,0,0,0,0,0,0,0,0,0,0,0,0,0],"split_type":[0,0,0,0,0,0,0,0,0,0,0,0,0,0,0,0,0,0,0,0,0,0,0,0,0,0,0,0,0,0,0,0,0,0,0,0,0,0,0,0,0,0,0,0,0,0,0,0,0,0,0,0,0,0,0,0,0,0,0,0,0,0,0,0,0,0,0,0,0,0,0,0,0,0,0,0,0,0,0,0,0,0,0,0,0,0,0,0,0,0,0,0,0,0,0,0,0,0,0,0,0,0,0,0,0,0,0,0,0,0,0,0,0,0,0,0,0,0,0,0,0,0,0],"sum_hessian":[1.0571389E4,6.341921E3,4.229468E3,3.1808945E3,3.1610264E3,1.4539016E3,2.7755664E3,9.7040045E2,2.2104941E3,2.4874722E3,6.735543E2,1.01379974E3,4.4010184E2,1.4739779E3,1.3015885E3,3.9354932E2,5.7685114E2,1.9727168E3,2.3777722E2,6.246736E2,1.8627985E3,1.4967712E2,5.238772E2,6.0945123E2,4.043485E2,3.0691837E2,1.3318347E2,1.3237255E3,1.502524E2,3.1161103E0,1.2984724E3,3.8439355E2,9.155746E0,2.341208E2,3.4273035E2,6.478326E2,1.3248842E3,7.062113E1,1.6715608E2,5.435125E2,8.116107E1,3.8771213E2,1.4750863E3,3.0100922E1,1.195762E2,3.9338144E2,1.3049574E2,5.449438E2,6.450745E1,7.4864296E1,3.2948422E2,2.8162928E1,2.7875543E2,1.2046912E2,1.2714354E1,1.955445E1,1.304171E3,1.436779E2,6.5744977E0,1.4510968E0,1.6650137E0,7.594178E2,5.390546E2,3.4747977E2,3.6913795E1,7.2306294E0,1.9251173E0,2.1307652E2,2.1044281E1,3.3962637E2,3.103984E0,5.81844E2,6.5988625E1,2.6017676E2,1.0647075E3,1.3037726E1,5.758341E1,3.4896854E1,1.3225923E2,1.4655338E2,3.9695914E2,7.69395E1,4.221573E0,2.5800507E2,1.2970706E2,1.3666366E3,1.084497E2,6.94204E0,2.3158882E1,1.1583533E2,3.7408745E0,1.9869403E2,1.9468741E2,6.1454975E1,6.904077E1,4.1753414E1,5.0319037E2,6.1787502E1,2.719944E0,5.4344296E0,6.942986E1,3.0343985E2,2.6044361E1,2.6197285E1,1.965643E0,2.7526895E2,3.4864879E0,1.1852235E2,1.94677E0,2.4507167E0,1.0263638E1,1.4211215E1,5.3432345E0,2.5771887E2,1.0464521E3,2.68484E0,1.4099306E2,1.176898E0,5.3975997E0,1.2239439E1,7.4717834E2,2.7670728E2,2.6234735E2],"tree_param":{"num_deleted":"0","num_feature":"12","num_nodes":"123","size_leaf_vector":"1"}},{"base_weights":[8.247558E-4,-2.4628817E-1,6.3455915E-1,-3.4019095E-1,7.0764554E-1,5.565845E-1,7.6963204E-1,-5.8355695E-1,-2.4462868E-1,9.880548E-1,3.9712036E-1,4.9728116E-1,7.5793874E-1,8.226019E-1,6.773977E-1,-7.8529507E-1,-4.5527124E-1,-2.921652E-1,9.7643085E-2,8.070399E-1,1.1240516E0,1.5441172E-1,8.0600333E-1,-2.504436E-1,5.0868624E-1,5.2947795E-1,8.086292E-1,7.116085E-1,8.966422E-1,-7.7462023E-1,6.8837917E-1,-1.0021654E0,-7.1807456E-1,-5.133087E-1,-9.940802E-2,-3.2558963E-1,9.531049E-2,-6.192713E-1,1.3529989E-1,8.7306905E-1,1.8977751E-1,-2.418708E-2,1.1386765E0,-2.5655574E-1,2.2793213E-1,1.34715E0,7.640305E-1,-1.13429494E-1,-7.879499E-1,1.0634209E-1,5.221427E-1,3.1003553E-1,7.6814306E-1,8.4691507E-1,5.4441893E-1,7.20927E-1,-5.230361E-2,1.019693E0,8.444992E-1,8.815529E-3,-1.2944458E-1,7.059923E-1,1.1725444E-1,-1.6027402E-2,-1.0158614E-1,-7.432061E-2,-3.9696187E-2,-4.8752394E-2,-9.449705E-2,-2.1842156E-2,1.1944906E-2,-1.2614471E-2,-3.7595924E-2,3.951665E-2,8.8627794E-4,-1.071256E-1,-2.8338319E-2,1.73615E-2,-3.6517676E-2,-1.1830176E-2,8.932634E-2,9.282783E-2,-2.9280713E-2,1.1671486E-1,5.9396118E-2,4.850765E-2,-4.465384E-2,-6.281801E-2,2.591045E-2,1.4564112E-1,4.2576514E-2,1.0900567E-2,7.955885E-2,-4.1625198E-2,1.5425797E-2,-1.0051167E-1,-1.9769927E-2,-4.7679428E-2,2.9272303E-2,-1.190837E-1,5.2453794E-2,5.685831E-2,2.36666E-3,4.7501452E-2,9.51984E-2,9.602104E-2,7.395086E-2,6.780698E-2,1.8819295E-2,6.291482E-2,8.539271E-2,1.0299971E-1,1.7863175E-2,7.497316E-2,9.916041E-2,6.863276E-2,1.0489168E-1,-6.5880455E-2,4.2679016E-2],"categories":[],"categories_nodes":[],"categories_segments":[],"categories_sizes":[],"default_left":[0,0,0,0,0,0,0,0,0,0,0,0,0,0,0,0,0,0,0,0,0,0,0,0,0,0,0,0,0,0,0,0,0,0,0,0,0,0,0,0,0,0,0,0,0,0,0,0,0,0,0,0,0,0,0,0,0,0,0,0,0,0,0,0,0,0,0,0,0,0,0,0,0,0,0,0,0,0,0,0,0,0,0,0,0,0,0,0,0,0,0,0,0,0,0,0,0,0,0,0,0,0,0,0,0,0,0,0,0,0,0,0,0,0,0,0,0,0,0],"id":6,"left_children":[1,3,5,7,9,11,13,15,17,19,21,23,25,27,29,31,33,35,37,39,41,43,45,47,49,51,53,55,57,59,61,63,65,67,69,71,73,75,77,79,81,-1,83,85,87,89,91,93,95,97,99,101,103,105,107,109,-1,111,113,-1,-1,115,117,-1,-1,-1,-1,-1,-1,-1,-1,-1,-1,-1,-1,-1,-1,-1,-1,-1,-1,-1,-1,-1,-1,-1,-1,-1,-1,-1,-1,-1,-1,-1,-1,-1,-1,-1,-1,-1,-1,-1,-1,-1,-1,-1,-1,-1,-1,-1,-1,-1,-1,-1,-1,-1,-1,-1,-1],"loss_changes":[1.6290696E3,6.706505E2,3.0307983E1,1.5833112E2,5.803656E1,2.1759644E1,4.6483765E0,4.934668E1,7.9665436E1,7.756714E0,3.1640682E1,1.2364532E1,4.4342194E0,4.8854675E0,6.8211975E0,1.0143585E1,2.4245224E1,5.569455E1,1.6218021E1,6.132393E0,4.2390137E0,6.164686E0,1.6734161E0,1.5476884E0,7.598633E0,3.9066238E0,2.9956665E0,3.5271149E0,1.7011108E0,1.6526861E0,3.8596344E0,1.841095E0,4.3241577E0,1.0794159E1,4.3549247E0,3.9703125E1,8.863897E0,4.2515707E0,1.0967394E1,2.8947906E0,6.0489545E0,0E0,2.3540802E0,4.6038876E0,4.751793E0,1.10248566E-1,2.2436676E0,1.5947951E0,3.5851836E-1,5.2486773E0,6.236389E0,3.1633573E0,1.5542107E0,2.9000397E0,2.064865E0,2.7849731E0,0E0,8.042679E-1,3.2478333E0,0E0,0E0,1.8425903E0,3.385758E0,0E0,0E0,0E0,0E0,0E0,0E0,0E0,0E0,0E0,0E0,0E0,0E0,0E0,0E0,0E0,0E0,0E0,0E0,0E0,0E0,0E0,0E0,0E0,0E0,0E0,0E0,0E0,0E0,0E0,0E0,0E0,0E0,0E0,0E0,0E0,0E0,0E0,0E0,0E0,0E0,0E0,0E0,0E0,0E0,0E0,0E0,0E0,0E0,0E0,0E0,0E0,0E0,0E0,0E0,0E0,0E0],"parents":[2147483647,0,0,1,1,2,2,3,3,4,4,5,5,6,6,7,7,8,8,9,9,10,10,11,11,12,12,13,13,14,14,15,15,16,16,17,17,18,18,19,19,20,20,21,21,22,22,23,23,24,24,25,25,26,26,27,27,28,28,29,29,30,30,31,31,32,32,33,33,34,34,35,35,36,36,37,37,38,38,39,39,40,40,42,42,43,43,44,44,45,45,46,46,47,47,48,48,49,49,50,50,51,51,52,52,53,53,54,54,55,55,57,57,58,58,61,61,62,62],"right_children":[2,4,6,8,10,12,14,16,18,20,22,24,26,28,30,32,34,36,38,40,42,44,46,48,50,52,54,56,58,60,62,64,66,68,70,72,74,76,78,80,82,-1,84,86,88,90,92,94,96,98,100,102,104,106,108,110,-1,112,114,-1,-1,116,118,-1,-1,-1,-1,-1,-1,-1,-1,-1,-1,-1,-1,-1,-1,-1,-1,-1,-1,-1,-1,-1,-1,-1,-1,-1,-1,-1,-1,-1,-1,-1,-1,-1,-1,-1,-1,-1,-1,-1,-1,-1,-1,-1,-1,-1,-1,-1,-1,-1,-1,-1,-1,-1,-1,-1,-1],"split_conditions":[8.5E1,3E0,2E0,7.9E1,3E0,9.5E1,2E0,6.41E1,2E0,7.21E1,2.8384802E1,2.0028841E1,1.57E2,7.42E1,5E1,2.082094E1,2E0,3.369494E1,2.1218317E1,1E0,1.48E2,2.2213678E1,1.51E2,1E0,9E1,7.42E1,1.07E2,3.295068E1,8.05E1,1.9814053E1,1.81E2,4E1,2E0,1E0,1.68E2,1E0,1E0,5.3E1,1E0,1.87883E1,1.64E2,-2.418708E-2,1.8E2,1.9486961E1,6.1E1,8.05E1,7.12E1,5.15E1,1E0,2.4767567E1,4.8E1,6.41E1,1.54E2,1.66E2,3.1588614E1,3E0,-5.230361E-2,3.5209496E1,3.5055634E1,8.815529E-3,-1.2944458E-1,1.01E2,8.85E1,-1.6027402E-2,-1.0158614E-1,-7.432061E-2,-3.9696187E-2,-4.8752394E-2,-9.449705E-2,-2.1842156E-2,1.1944906E-2,-1.2614471E-2,-3.7595924E-2,3.951665E-2,8.8627794E-4,-1.071256E-1,-2.8338319E-2,1.73615E-2,-3.6517676E-2,-1.1830176E-2,8.932634E-2,9.282783E-2,-2.9280713E-2,1.1671486E-1,5.9396118E-2,4.850765E-2,-4.465384E-2,-6.281801E-2,2.591045E-2,1.4564112E-1,4.2576514E-2,1.0900567E-2,7.955885E-2,-4.1625198E-2,1.5425797E-2,-1.0051167E-1,-1.9769927E-2,-4.7679428E-2,2.9272303E-2,-1.190837E-1,5.2453794E-2,5.685831E-2,2.36666E-3,4.7501452E-2,9.51984E-2,9.602104E-2,7.395086E-2,6.780698E-2,1.8819295E-2,6.291482E-2,8.539271E-2,1.0299971E-1,1.7863175E-2,7.497316E-2,9.916041E-2,6.863276E-2,1.0489168E-1,-6.5880455E-2,4.2679016E-2],"split_indices":[5,6,6,5,7,5,7,3,6,3,11,11,2,3,3,11,6,11,11,8,2,11,2,8,5,3,5,11,3,11,2,3,7,9,2,10,10,3,9,11,2,0,2,11,5,3,3,3,9,11,3,3,2,2,11,6,0,11,11,0,0,5,3,0,0,0,0,0,0,0,0,0,0,0,0,0,0,0,0,0,0,0,0,0,0,0,0,0,0,0,0,0,0,0,0,0,0,0,0,0,0,0,0,0,0,0,0,0,0,0,0,0,0,0,0,0,0,0,0],"split_type":[0,0,0,0,0,0,0,0,0,0,0,0,0,0,0,0,0,0,0,0,0,0,0,0,0,0,0,0,0,0,0,0,0,0,0,0,0,0,0,0,0,0,0,0,0,0,0,0,0,0,0,0,0,0,0,0,0,0,0,0,0,0,0,0,0,0,0,0,0,0,0,0,0,0,0,0,0,0,0,0,0,0,0,0,0,0,0,0,0,0,0,0,0,0,0,0,0,0,0,0,0,0,0,0,0,0,0,0,0,0,0,0,0,0,0,0,0,0,0],"sum_hessian":[1.0400481E4,7.4831704E3,2.9173113E3,6.813145E3,6.7002515E2,1.8528317E3,1.0644797E3,1.9195553E3,4.89359E3,3.5093936E2,3.190858E2,1.4339664E3,4.188652E2,6.711324E2,3.933473E2,7.441722E2,1.175383E3,4.296953E3,5.96637E2,1.5352641E2,1.9741295E2,2.0109534E2,1.1799044E2,2.1228851E1,1.4127377E3,7.8139145E1,3.4072607E2,2.7279633E2,3.9833606E2,2.4305418E0,3.9091675E2,1.7279219E2,5.7138E2,1.0101896E3,1.6519351E2,3.955871E3,3.4108188E2,2.9004335E1,5.676327E2,1.3831618E2,1.5210225E1,1.9266976E0,1.9548625E2,3.0138166E1,1.7095717E2,6.2546606E0,1.1173579E2,1.7881708E1,3.347143E0,4.6008186E1,1.3667295E3,4.1906727E1,3.6232418E1,2.9567526E2,4.505079E1,2.7116577E2,1.630539E0,1.1303418E2,2.8530188E2,1.226043E0,1.2044989E0,3.789927E2,1.1924041E1,2.969323E0,1.6982286E2,5.286883E2,4.2691677E1,9.552578E2,5.493177E1,1.07006065E2,5.8187443E1,7.983207E2,3.1575503E3,7.552873E1,2.6555316E2,1.1431848E1,1.7572487E1,5.278733E2,3.97594E1,2.664274E0,1.356519E2,5.646229E0,9.563996E0,1.846899E2,1.0796359E1,5.8292704E0,2.4308897E1,5.3332753E0,1.656239E2,5.0724726E0,1.1821883E0,5.3405313E0,1.0639525E2,8.129823E0,9.751885E0,1.9330611E0,1.4140818E0,1.0766016E1,3.524217E1,1.2155937E0,1.3655139E3,2.1505259E1,2.0401468E1,1.5346591E1,2.0885828E1,1.4002893E2,1.5564633E2,3.21028E1,1.2947992E1,1.6383754E2,1.0732823E2,1.1144421E2,1.589975E0,1.7722617E2,1.08075714E2,3.6127698E2,1.7715734E1,3.0781724E0,8.845868E0],"tree_param":{"num_deleted":"0","num_feature":"12","num_nodes":"119","size_leaf_vector":"1"}},{"base_weights":[-3.5153413E-3,-3.926248E-1,5.908647E-1,-4.5960525E-1,5.1615226E-1,1.9678225E-1,7.9660624E-1,-6.7633164E-1,-3.6486012E-1,2.8216556E-1,8.131695E-1,7.16476E-2,7.757531E-1,7.3851204E-1,8.643998E-1,-7.2446823E-1,-3.9027673E-1,-1.649783E-1,-4.1634578E-1,5.879328E-1,1.828181E-1,4.805854E-2,8.638397E-1,1.1425035E-1,-2.7826962E-1,1.0315099E0,7.180344E-1,3.6194056E-1,7.44446E-1,7.482313E-1,8.902427E-1,-8.872315E-1,-6.51806E-1,1.12992395E-2,-4.8177838E-1,-1.8569589E-1,5.462272E-1,-3.852571E-1,-7.373597E-1,2.8937376E-1,8.260814E-1,2.1187663E-1,-5.104057E-1,-2.063717E-1,1.0752424E-1,8.883507E-1,4.0389967E-1,7.490036E-2,3.023081E-1,-1.5921587E-1,-7.004747E-1,8.8431674E-1,1.3818002E0,7.966332E-1,5.8859E-1,6.512087E-1,-1.2322384E-1,1.3151585E-1,7.471448E-1,7.722466E-1,-1.2968528E-1,1.4254072E-1,8.9614797E-1,-1.04849E-1,-7.876683E-2,-6.5778136E-2,8.053105E-2,-3.2565407E-2,1.5248715E-2,-6.847638E-2,-3.8346108E-2,-2.2344282E-2,1.28884865E-2,8.434761E-2,1.6270952E-2,-4.0904846E-2,-1.5251215E-2,-8.404704E-2,6.4965147E-3,-6.2170215E-2,3.6321834E-2,-1.7772492E-2,8.887141E-2,1.8234614E-2,7.497948E-2,8.521552E-3,-8.111914E-2,2.8026676E-2,-3.952415E-2,8.340896E-2,1.4502424E-1,-2.9946728E-2,5.260835E-2,9.601147E-3,-1.624887E-2,3.4214433E-2,-3.4279894E-2,-2.5046414E-2,2.5086945E-2,-9.398725E-2,1.3330767E-2,9.8003976E-2,4.6461545E-2,1.4469783E-1,4.603031E-2,8.3445534E-2,-4.180067E-3,5.106708E-2,9.803876E-2,5.9442E-3,7.9498015E-2,-8.306019E-2,3.279152E-2,9.010314E-2,-8.23485E-2,8.121213E-2,7.199852E-2,6.548294E-2,8.743966E-2,2.4990147E-2,-5.4388434E-2,7.369766E-2,-9.623164E-3,9.044985E-2,6.1045468E-2],"categories":[],"categories_nodes":[],"categories_segments":[],"categories_sizes":[],"default_left":[0,0,0,0,0,0,0,0,0,0,0,0,0,0,0,0,0,0,0,0,0,0,0,0,0,0,0,0,0,0,0,0,0,0,0,0,0,0,0,0,0,0,0,0,0,0,0,0,0,0,0,0,0,0,0,0,0,0,0,0,0,0,0,0,0,0,0,0,0,0,0,0,0,0,0,0,0,0,0,0,0,0,0,0,0,0,0,0,0,0,0,0,0,0,0,0,0,0,0,0,0,0,0,0,0,0,0,0,0,0,0,0,0,0,0,0,0,0,0,0,0,0,0,0,0],"id":7,"left_children":[1,3,5,7,9,11,13,15,17,19,21,23,25,27,29,31,33,35,37,39,41,43,45,47,49,51,53,55,57,59,61,63,65,67,69,71,73,75,77,79,81,83,85,87,-1,89,91,93,95,97,99,101,103,105,107,109,111,113,115,117,119,121,123,-1,-1,-1,-1,-1,-1,-1,-1,-1,-1,-1,-1,-1,-1,-1,-1,-1,-1,-1,-1,-1,-1,-1,-1,-1,-1,-1,-1,-1,-1,-1,-1,-1,-1,-1,-1,-1,-1,-1,-1,-1,-1,-1,-1,-1,-1,-1,-1,-1,-1,-1,-1,-1,-1,-1,-1,-1,-1,-1,-1,-1,-1],"loss_changes":[2.3884863E3,3.8015204E2,3.3112537E2,1.19125854E2,2.9578857E1,1.01576935E2,9.932617E0,2.4051147E1,4.158197E1,7.226824E0,7.26503E0,1.7243933E1,2.9381256E0,2.975769E0,3.034912E0,1.7297668E1,9.438358E0,1.2340281E1,3.1827637E1,3.938736E0,3.8082695E0,3.5580065E0,1.633255E0,7.5993843E0,6.2021446E0,1.025814E0,1.6332245E0,3.5153294E0,2.2653809E0,4.962143E0,4.301758E0,6.6197205E0,9.660858E0,2.362509E0,3.9103813E0,9.621727E0,2.5719948E0,1.6193207E1,2.3467194E1,2.0834513E0,2.1790428E0,2.6749215E0,1.4456048E0,1.1282198E0,0E0,3.8798065E0,1.083465E0,4.2909317E0,4.6890163E0,3.7775996E0,5.581332E0,8.894634E-1,1.8997192E-3,4.0217896E0,1.9992523E0,1.2708797E0,3.458323E0,6.2371674E0,1.925354E0,2.12146E0,1.2359371E0,1.3554366E0,1.8218384E0,0E0,0E0,0E0,0E0,0E0,0E0,0E0,0E0,0E0,0E0,0E0,0E0,0E0,0E0,0E0,0E0,0E0,0E0,0E0,0E0,0E0,0E0,0E0,0E0,0E0,0E0,0E0,0E0,0E0,0E0,0E0,0E0,0E0,0E0,0E0,0E0,0E0,0E0,0E0,0E0,0E0,0E0,0E0,0E0,0E0,0E0,0E0,0E0,0E0,0E0,0E0,0E0,0E0,0E0,0E0,0E0,0E0,0E0,0E0,0E0,0E0,0E0],"parents":[2147483647,0,0,1,1,2,2,3,3,4,4,5,5,6,6,7,7,8,8,9,9,10,10,11,11,12,12,13,13,14,14,15,15,16,16,17,17,18,18,19,19,20,20,21,21,22,22,23,23,24,24,25,25,26,26,27,27,28,28,29,29,30,30,31,31,32,32,33,33,34,34,35,35,36,36,37,37,38,38,39,39,40,40,41,41,42,42,43,43,45,45,46,46,47,47,48,48,49,49,50,50,51,51,52,52,53,53,54,54,55,55,56,56,57,57,58,58,59,59,60,60,61,61,62,62],"right_children":[2,4,6,8,10,12,14,16,18,20,22,24,26,28,30,32,34,36,38,40,42,44,46,48,50,52,54,56,58,60,62,64,66,68,70,72,74,76,78,80,82,84,86,88,-1,90,92,94,96,98,100,102,104,106,108,110,112,114,116,118,120,122,124,-1,-1,-1,-1,-1,-1,-1,-1,-1,-1,-1,-1,-1,-1,-1,-1,-1,-1,-1,-1,-1,-1,-1,-1,-1,-1,-1,-1,-1,-1,-1,-1,-1,-1,-1,-1,-1,-1,-1,-1,-1,-1,-1,-1,-1,-1,-1,-1,-1,-1,-1,-1,-1,-1,-1,-1,-1,-1,-1,-1,-1,-1],"split_conditions":[1.29E2,3E0,1.35E2,1.19E2,7.32E1,3E0,1.5E2,2E0,1E0,1.58E2,1.06E2,1E0,1E0,1.48E2,1.57E2,6.15E1,1E0,1.03E2,1E0,6.05E1,1E0,1E0,1.09E2,2E0,1.76E2,9.05E1,8.6E1,7.12E1,6.5E1,1E0,5.3E1,1.1E2,1.21E2,6.23E1,6.23E1,2E0,1.095E2,2E0,2E0,4.5E1,6.6E1,8.6E1,1.63E2,1.58E2,1.0752424E-1,1E2,7.1E1,1.76E2,1E0,1.73E2,2E0,2E0,1E0,1.79E2,1.73E2,1E0,8.7E1,6.95E1,8.1E1,1.58E2,1.54E2,8.1E1,1.17E2,-1.04849E-1,-7.876683E-2,-6.5778136E-2,8.053105E-2,-3.2565407E-2,1.5248715E-2,-6.847638E-2,-3.8346108E-2,-2.2344282E-2,1.28884865E-2,8.434761E-2,1.6270952E-2,-4.0904846E-2,-1.5251215E-2,-8.404704E-2,6.4965147E-3,-6.2170215E-2,3.6321834E-2,-1.7772492E-2,8.887141E-2,1.8234614E-2,7.497948E-2,8.521552E-3,-8.111914E-2,2.8026676E-2,-3.952415E-2,8.340896E-2,1.4502424E-1,-2.9946728E-2,5.260835E-2,9.601147E-3,-1.624887E-2,3.4214433E-2,-3.4279894E-2,-2.5046414E-2,2.5086945E-2,-9.398725E-2,1.3330767E-2,9.8003976E-2,4.6461545E-2,1.4469783E-1,4.603031E-2,8.3445534E-2,-4.180067E-3,5.106708E-2,9.803876E-2,5.9442E-3,7.9498015E-2,-8.306019E-2,3.279152E-2,9.010314E-2,-8.23485E-2,8.121213E-2,7.199852E-2,6.548294E-2,8.743966E-2,2.4990147E-2,-5.4388434E-2,7.369766E-2,-9.623164E-3,9.044985E-2,6.1045468E-2],"split_indices":[4,6,4,4,3,6,4,6,10,2,4,8,10,2,2,3,10,3,8,3,9,8,3,6,2,3,5,3,5,9,3,4,5,3,3,6,3,6,6,3,5,5,2,2,0,3,5,2,9,2,6,1,8,2,2,10,5,3,5,4,2,5,3,0,0,0,0,0,0,0,0,0,0,0,0,0,0,0,0,0,0,0,0,0,0,0,0,0,0,0,0,0,0,0,0,0,0,0,0,0,0,0,0,0,0,0,0,0,0,0,0,0,0,0,0,0,0,0,0,0,0,0,0,0,0],"split_type":[0,0,0,0,0,0,0,0,0,0,0,0,0,0,0,0,0,0,0,0,0,0,0,0,0,0,0,0,0,0,0,0,0,0,0,0,0,0,0,0,0,0,0,0,0,0,0,0,0,0,0,0,0,0,0,0,0,0,0,0,0,0,0,0,0,0,0,0,0,0,0,0,0,0,0,0,0,0,0,0,0,0,0,0,0,0,0,0,0,0,0,0,0,0,0,0,0,0,0,0,0,0,0,0,0,0,0,0,0,0,0,0,0,0,0,0,0,0,0,0,0,0,0,0,0],"sum_hessian":[1.0325296E4,6.2403833E3,4.084912E3,5.8124756E3,4.2790814E2,1.4018086E3,2.6831035E3,1.7662036E3,4.0462717E3,2.4044125E2,1.8746687E2,1.1536012E3,2.4820743E2,1.4513203E3,1.2317832E3,1.5104897E3,2.5571387E2,8.296274E2,3.2166443E3,5.775806E1,1.826832E2,1.1765065E1,1.7570181E2,1.0289938E3,1.24607445E2,4.2594765E1,2.0561266E2,2.3476423E1,1.427844E3,2.2960794E2,1.00217523E3,4.627405E2,1.0477493E3,4.761613E1,2.0809775E2,8.068622E2,2.2765188E1,2.9346387E3,2.8200574E2,2.6611362E1,3.1146696E1,1.76E2,6.6832013E0,1.0069878E1,1.6951877E0,1.6592778E2,9.774027E0,8.5209595E2,1.7689781E2,9.8273346E1,2.6334097E1,3.247372E1,1.0121041E1,1.2472513E2,8.088753E1,1.4493038E1,8.983384E0,6.477576E0,1.4213663E3,2.2361145E2,5.99649E0,8.050041E0,9.941252E2,1.7300328E2,2.897372E2,1.0440166E3,3.7327127E0,1.3674528E1,3.39416E1,6.5957466E1,1.4214027E2,7.2067694E2,8.618522E1,1.2149384E1,1.0615806E1,2.661791E3,2.728476E2,2.4984888E2,3.215686E1,1.438946E0,2.5172417E1,1.7213445E0,2.9425352E1,1.681101E2,7.889882E0,2.4830031E0,4.200198E0,2.680202E0,7.3896756E0,1.535811E2,1.2346684E1,1.2318372E0,8.54219E0,7.8305414E2,6.9041794E1,1.6705177E2,9.846038E0,8.07049E1,1.7568443E1,2.036081E1,5.9732885E0,2.5355663E1,7.1180596E0,8.919884E0,1.2011573E0,1.19346115E2,5.3790135E0,6.9390755E1,1.1496777E1,3.10915E0,1.1383888E1,3.170685E0,5.8126993E0,3.6184404E0,2.8591356E0,4.1046692E2,1.0108995E3,1.074791E2,1.1613235E2,3.3359604E0,2.6605296E0,1.7089642E0,6.341077E0,9.637888E2,3.0336409E1],"tree_param":{"num_deleted":"0","num_feature":"12","num_nodes":"125","size_leaf_vector":"1"}},{"base_weights":[-2.467276E-4,-3.5510883E-1,5.4646224E-1,-5.566256E-1,-4.8891444E-2,1.9389123E-1,7.4377745E-1,-6.0040444E-1,3.8135335E-1,-1.2318064E-1,5.652032E-1,7.17173E-2,7.643829E-1,7.7098554E-1,4.9754447E-1,-8.153702E-1,-5.117613E-1,8.7293863E-1,1.4535076E-2,-2.6109985E-1,2.6367247E-2,2.86386E-1,7.382538E-1,1.12376064E-1,-2.7673653E-1,8.621507E-1,6.0829455E-1,6.273209E-1,7.8892577E-1,3.0869582E-1,5.7616293E-1,-8.6647105E-1,-3.7111863E-1,-7.3455995E-1,-4.4216156E-1,5.3338134E-1,1.0003333E0,-7.702178E-2,6.589142E-1,-2.938158E-1,3.4703344E-2,-1.8575135E-1,9.641264E-2,-3.3690512E-2,5.6095743E-1,7.6464504E-1,-1.2736966E-1,6.679517E-2,3.1873396E-1,-4.1128162E-1,1.2903012E-1,9.9056274E-1,6.714815E-1,9.486205E-1,4.842182E-1,6.48532E-1,-8.405834E-2,7.4596214E-1,8.355533E-1,6.820814E-1,9.37324E-2,6.1837626E-1,2.338721E-1,-8.906695E-2,-4.219291E-2,-5.9835862E-2,-7.225922E-3,-7.0224404E-2,-1.1478213E-1,-2.6343927E-2,-4.884057E-2,-1.721192E-2,6.1255813E-2,1.0862019E-1,-2.083806E-3,-6.888831E-2,-1.0049765E-3,8.9911334E-2,-4.902861E-2,-4.7932386E-2,-2.3051344E-2,6.691864E-2,-3.5164952E-3,-4.5041766E-2,-8.829522E-3,1.5254585E-3,3.240065E-2,2.538457E-2,-4.9799018E-2,8.6969405E-2,2.6544368E-2,7.3633865E-2,1.4000957E-1,-2.7963887E-3,1.9599754E-2,8.4962055E-2,2.6326692E-2,-7.3903196E-2,-2.3602474E-2,5.3438753E-2,-1.243247E-2,1.0216737E-1,3.256447E-2,7.334604E-2,1.8105477E-2,-5.060377E-3,9.978148E-2,1.444785E-2,6.442753E-2,-3.7810184E-2,6.56947E-2,3.764136E-2,-1.16393566E-1,7.0815064E-2,8.22222E-2,2.0279132E-2,8.3960086E-2,6.074746E-3,8.9976154E-2,1.1799278E-1,-1.3435732E-3,2.8079016E-2,6.834579E-2,1.01150155E-1,-1.3331181E-2],"categories":[],"categories_nodes":[],"categories_segments":[],"categories_sizes":[],"default_left":[0,0,0,0,0,0,0,0,0,0,0,0,0,0,0,0,0,0,0,0,0,0,0,0,0,0,0,0,0,0,0,0,0,0,0,0,0,0,0,0,0,0,0,0,0,0,0,0,0,0,0,0,0,0,0,0,0,0,0,0,0,0,0,0,0,0,0,0,0,0,0,0,0,0,0,0,0,0,0,0,0,0,0,0,0,0,0,0,0,0,0,0,0,0,0,0,0,0,0,0,0,0,0,0,0,0,0,0,0,0,0,0,0,0,0,0,0,0,0,0,0,0,0,0,0],"id":8,"left_children":[1,3,5,7,9,11,13,15,17,19,21,23,25,27,29,31,33,35,37,39,41,43,45,47,49,51,53,55,57,59,61,63,65,67,69,71,73,75,77,79,81,83,85,87,89,91,-1,93,95,97,99,101,103,105,107,109,111,113,115,117,119,121,123,-1,-1,-1,-1,-1,-1,-1,-1,-1,-1,-1,-1,-1,-1,-1,-1,-1,-1,-1,-1,-1,-1,-1,-1,-1,-1,-1,-1,-1,-1,-1,-1,-1,-1,-1,-1,-1,-1,-1,-1,-1,-1,-1,-1,-1,-1,-1,-1,-1,-1,-1,-1,-1,-1,-1,-1,-1,-1,-1,-1,-1,-1],"loss_changes":[1.9762335E3,3.8114368E2,2.787821E2,1.5320325E2,1.11964096E2,1.0031566E2,1.683667E1,6.741113E1,3.0052694E1,4.5152977E1,1.256852E1,1.6850365E1,3.350113E0,5.4660645E0,3.661255E0,2.3233276E1,3.879834E1,2.5477638E0,5.7439656E0,1.10308E1,1.5634478E1,9.077189E0,9.618317E0,9.984975E0,6.8410482E0,3.0984802E0,3.8131065E0,4.002289E0,3.487793E0,6.2095113E0,2.4767418E0,9.626221E0,7.344779E0,7.194031E0,1.5780762E1,1.3106422E0,4.4644737E0,3.4921322E0,3.7836423E0,1.1931877E1,5.09056E0,6.6990137E0,1.4601963E1,6.6060033E0,4.8360176E0,1.8707352E0,0E0,1.0689025E1,5.4360294E0,5.2027645E0,3.3243184E0,1.5238953E0,1.8419342E0,1.3280525E0,4.0499287E0,2.4442062E0,4.645087E0,2.524292E0,2.3287964E0,3.7861948E0,5.924848E0,3.3430138E0,6.2810984E0,0E0,0E0,0E0,0E0,0E0,0E0,0E0,0E0,0E0,0E0,0E0,0E0,0E0,0E0,0E0,0E0,0E0,0E0,0E0,0E0,0E0,0E0,0E0,0E0,0E0,0E0,0E0,0E0,0E0,0E0,0E0,0E0,0E0,0E0,0E0,0E0,0E0,0E0,0E0,0E0,0E0,0E0,0E0,0E0,0E0,0E0,0E0,0E0,0E0,0E0,0E0,0E0,0E0,0E0,0E0,0E0,0E0,0E0,0E0,0E0,0E0,0E0],"parents":[2147483647,0,0,1,1,2,2,3,3,4,4,5,5,6,6,7,7,8,8,9,9,10,10,11,11,12,12,13,13,14,14,15,15,16,16,17,17,18,18,19,19,20,20,21,21,22,22,23,23,24,24,25,25,26,26,27,27,28,28,29,29,30,30,31,31,32,32,33,33,34,34,35,35,36,36,37,37,38,38,39,39,40,40,41,41,42,42,43,43,44,44,45,45,47,47,48,48,49,49,50,50,51,51,52,52,53,53,54,54,55,55,56,56,57,57,58,58,59,59,60,60,61,61,62,62],"right_children":[2,4,6,8,10,12,14,16,18,20,22,24,26,28,30,32,34,36,38,40,42,44,46,48,50,52,54,56,58,60,62,64,66,68,70,72,74,76,78,80,82,84,86,88,90,92,-1,94,96,98,100,102,104,106,108,110,112,114,116,118,120,122,124,-1,-1,-1,-1,-1,-1,-1,-1,-1,-1,-1,-1,-1,-1,-1,-1,-1,-1,-1,-1,-1,-1,-1,-1,-1,-1,-1,-1,-1,-1,-1,-1,-1,-1,-1,-1,-1,-1,-1,-1,-1,-1,-1,-1,-1,-1,-1,-1,-1,-1,-1,-1,-1,-1,-1,-1,-1,-1,-1,-1,-1,-1],"split_conditions":[1.29E2,5.5E1,1.39E2,3E0,3E0,3E0,3E0,4.5E1,3E0,5.9E1,6.89E1,1E0,3E0,1.55E2,3E0,2E0,6.24E1,6.63E1,8.55E1,8.8E1,8E1,5.9E1,1.86E2,6.1E1,5.8E1,8.1E1,1.58E2,1.05E2,1.5E2,7.42E1,1.02E2,2E0,7.32E1,1E0,1E0,1.01E2,5.4E1,4.1E1,1.76E2,1.19E2,8.85E1,6.12E1,6.3E1,1.64E2,3E0,1.21E2,-1.2736966E-1,8.5E1,7.5E1,7.32E1,1.67E2,6.4E1,1E0,4.8E1,7.42E1,6.6E1,3E0,2E0,5.15E1,1.58E2,1.54E2,5.1E1,5.4E1,-8.906695E-2,-4.219291E-2,-5.9835862E-2,-7.225922E-3,-7.0224404E-2,-1.1478213E-1,-2.6343927E-2,-4.884057E-2,-1.721192E-2,6.1255813E-2,1.0862019E-1,-2.083806E-3,-6.888831E-2,-1.0049765E-3,8.9911334E-2,-4.902861E-2,-4.7932386E-2,-2.3051344E-2,6.691864E-2,-3.5164952E-3,-4.5041766E-2,-8.829522E-3,1.5254585E-3,3.240065E-2,2.538457E-2,-4.9799018E-2,8.6969405E-2,2.6544368E-2,7.3633865E-2,1.4000957E-1,-2.7963887E-3,1.9599754E-2,8.4962055E-2,2.6326692E-2,-7.3903196E-2,-2.3602474E-2,5.3438753E-2,-1.243247E-2,1.0216737E-1,3.256447E-2,7.334604E-2,1.8105477E-2,-5.060377E-3,9.978148E-2,1.444785E-2,6.442753E-2,-3.7810184E-2,6.56947E-2,3.764136E-2,-1.16393566E-1,7.0815064E-2,8.22222E-2,2.0279132E-2,8.3960086E-2,6.074746E-3,8.9976154E-2,1.1799278E-1,-1.3435732E-3,2.8079016E-2,6.834579E-2,1.01150155E-1,-1.3331181E-2],"split_indices":[4,0,4,6,6,6,7,0,7,0,3,8,7,2,6,6,3,3,3,3,5,0,2,0,0,5,2,3,4,3,3,7,3,8,10,4,0,0,2,4,3,3,0,2,7,4,0,5,5,3,2,0,8,0,3,5,6,6,3,2,2,0,0,0,0,0,0,0,0,0,0,0,0,0,0,0,0,0,0,0,0,0,0,0,0,0,0,0,0,0,0,0,0,0,0,0,0,0,0,0,0,0,0,0,0,0,0,0,0,0,0,0,0,0,0,0,0,0,0,0,0,0,0,0,0],"split_type":[0,0,0,0,0,0,0,0,0,0,0,0,0,0,0,0,0,0,0,0,0,0,0,0,0,0,0,0,0,0,0,0,0,0,0,0,0,0,0,0,0,0,0,0,0,0,0,0,0,0,0,0,0,0,0,0,0,0,0,0,0,0,0,0,0,0,0,0,0,0,0,0,0,0,0,0,0,0,0,0,0,0,0,0,0,0,0,0,0,0,0,0,0,0,0,0,0,0,0,0,0,0,0,0,0,0,0,0,0,0,0,0,0,0,0,0,0,0,0,0,0,0,0,0,0],"sum_hessian":[1.018444E4,6.176015E3,4.0084255E3,3.724297E3,2.4517183E3,1.4390516E3,2.569374E3,3.558566E3,1.657312E2,2.1878462E3,2.638721E2,1.1861556E3,2.5289603E2,2.3117957E3,2.575784E2,1.0365829E3,2.521983E3,7.023167E1,9.5499535E1,1.1377867E3,1.0500594E3,1.02071144E2,1.6180095E2,1.0628197E3,1.2333586E2,1.5271666E2,1.00179375E2,2.6063174E2,2.0511638E3,7.715989E1,1.8041852E2,9.287961E2,1.0778678E2,5.9803467E2,1.9239482E3,2.0575811E1,4.9655857E1,8.438949E1,1.1110042E1,1.0244849E3,1.13301796E2,2.6026044E2,7.89799E2,4.7535187E1,5.453596E1,1.6031796E2,1.4829855E0,8.7161804E2,1.9120169E2,9.261332E1,3.0722536E1,8.875004E1,6.396662E1,2.4989857E1,7.5189514E1,2.5317134E2,7.460409E0,1.076371E3,9.747928E2,2.7397745E1,4.9762146E1,1.5989297E2,2.0525543E1,8.798957E2,4.8900383E1,6.0660774E1,4.712601E1,5.571651E2,4.086954E1,3.9686374E2,1.5270845E3,1.9577273E0,1.8618084E1,4.574551E1,3.910347E0,7.4095116E0,7.697998E1,9.369336E0,1.740706E0,2.5897748E2,7.6550745E2,1.0388118E1,1.0291368E2,6.906784E1,1.911926E2,5.829802E2,2.0681882E2,2.963549E1,1.7899696E1,2.5721035E1,2.8814926E1,1.5554779E2,4.77018E0,5.0328467E2,3.6833337E2,1.673263E1,1.7446906E2,3.1147362E1,6.146596E1,1.1389906E1,1.933263E1,8.427055E1,4.4794817E0,5.6349735E1,7.6168857E0,1.1712389E0,2.3818619E1,2.4688335E1,5.050118E1,1.7011242E0,2.5147021E2,5.686886E0,1.7735232E0,7.2645984E2,3.499112E2,6.520566E0,9.682722E2,7.440128E0,1.9957619E1,3.569873E0,4.6192272E1,2.6701824E1,1.3319115E2,6.0204854E0,1.4505058E1],"tree_param":{"num_deleted":"0","num_feature":"12","num_nodes":"125","size_leaf_vector":"1"}},{"base_weights":[-8.8886416E-5,-3.2441667E-1,5.032241E-1,-3.825351E-1,4.4453686E-1,1.6856724E-1,6.838911E-1,-5.784751E-1,-2.989961E-1,7.4896765E-1,1.7632863E-1,5.685457E-2,6.9611883E-1,7.017732E-1,5.2466786E-1,-6.6568154E-1,-4.245852E-1,-3.5941416E-1,-1.3188463E-1,1.3128698E-1,7.9627764E-1,3.1345006E-2,5.205365E-1,7.980529E-2,-2.9741484E-1,8.031931E-1,5.3372055E-1,7.05868E-1,3.143929E-1,1.1436E0,4.98534E-1,-7.1093506E-1,-3.6042348E-1,-4.5688653E-1,-1.3178198E-1,-5.507981E-1,-3.2481998E-1,1.0954583E-1,-1.9551162E-1,5.313664E-1,-9.097525E-1,4.0501887E-1,8.338411E-1,-3.6020383E-1,1.24480724E-1,5.888345E-1,-1.1635215E-2,-4.313403E-1,9.3444936E-2,1.0506514E-1,-5.1660204E-1,9.2496777E-1,6.142127E-1,3.6627188E-1,7.791771E-1,4.6997282E-1,7.132581E-1,4.031742E-1,-6.599494E-2,1.8483872E-2,1.3066559E-1,1.763886E-1,5.417634E-1,-8.68388E-2,-6.4167365E-2,-9.1123156E-4,-4.423081E-2,-4.6347506E-2,8.064675E-2,-3.596348E-2,2.395988E-2,-5.2525707E-2,-1.12486415E-1,-1.8271117E-2,-3.617856E-2,-1.228453E-2,2.7062122E-2,-2.5281195E-2,-7.1421906E-4,-7.7991746E-3,9.376044E-2,-1.6539186E-2,-1.1935182E-1,7.942692E-2,-7.258931E-2,1.02315E-1,7.3863976E-2,-1.5324197E-2,-1.2401139E-1,-1.6133659E-2,2.2387708E-2,4.0970743E-2,1.0523533E-1,9.008509E-2,-2.7402217E-2,6.912213E-2,-6.1719216E-2,8.6509414E-2,8.78382E-3,-8.9685105E-2,2.7695438E-2,-7.606437E-2,-1.6262576E-2,9.639992E-2,-1.0085106E-3,4.9898487E-2,1.0535326E-1,-3.83576E-2,4.296381E-2,8.40111E-2,-1.9833978E-2,4.0122565E-2,9.975354E-2,6.747557E-2,7.591694E-2,5.124677E-2,-3.8191903E-2,-3.3053493E-3,9.427178E-2,5.6673642E-2,1.060102E-3],"categories":[],"categories_nodes":[],"categories_segments":[],"categories_sizes":[],"default_left":[0,0,0,0,0,0,0,0,0,0,0,0,0,0,0,0,0,0,0,0,0,0,0,0,0,0,0,0,0,0,0,0,0,0,0,0,0,0,0,0,0,0,0,0,0,0,0,0,0,0,0,0,0,0,0,0,0,0,0,0,0,0,0,0,0,0,0,0,0,0,0,0,0,0,0,0,0,0,0,0,0,0,0,0,0,0,0,0,0,0,0,0,0,0,0,0,0,0,0,0,0,0,0,0,0,0,0,0,0,0,0,0,0,0,0,0,0,0,0,0,0],"id":9,"left_children":[1,3,5,7,9,11,13,15,17,19,21,23,25,27,29,31,33,35,37,39,41,43,45,47,49,51,53,55,57,59,61,63,65,67,69,71,73,75,77,79,81,83,85,87,89,91,93,95,97,99,101,103,105,107,109,111,113,115,-1,-1,-1,117,119,-1,-1,-1,-1,-1,-1,-1,-1,-1,-1,-1,-1,-1,-1,-1,-1,-1,-1,-1,-1,-1,-1,-1,-1,-1,-1,-1,-1,-1,-1,-1,-1,-1,-1,-1,-1,-1,-1,-1,-1,-1,-1,-1,-1,-1,-1,-1,-1,-1,-1,-1,-1,-1,-1,-1,-1,-1,-1],"loss_changes":[1.638493E3,2.7296277E2,2.3770203E2,9.272986E1,3.492843E1,8.130873E1,6.9038086E0,2.247052E1,4.01492E1,5.763588E0,1.1441081E1,9.294395E0,3.7641678E0,3.4155273E0,3.6651688E0,1.4668762E1,5.7660065E0,1.9176697E1,1.6285416E1,6.9323745E0,2.400711E0,5.97466E0,2.4776459E0,7.511444E0,6.1928024E0,2.730423E0,3.7750664E0,3.6192627E0,2.4969742E0,1.2960386E0,3.4278374E0,9.692871E0,4.0670376E0,4.9884567E0,5.3842897E0,5.950058E0,1.29530945E1,8.323366E0,9.046299E0,2.99823E0,7.8844285E-1,8.617376E0,2.2911224E0,5.5469003E0,3.7890902E0,4.572714E0,2.3328779E0,6.274588E0,4.4433384E0,4.6166477E0,3.782508E0,3.1188507E0,2.4683094E0,3.0449066E0,2.5001335E0,2.2051926E0,3.3724365E0,2.2770913E0,0E0,0E0,0E0,5.07367E0,2.9465637E0,0E0,0E0,0E0,0E0,0E0,0E0,0E0,0E0,0E0,0E0,0E0,0E0,0E0,0E0,0E0,0E0,0E0,0E0,0E0,0E0,0E0,0E0,0E0,0E0,0E0,0E0,0E0,0E0,0E0,0E0,0E0,0E0,0E0,0E0,0E0,0E0,0E0,0E0,0E0,0E0,0E0,0E0,0E0,0E0,0E0,0E0,0E0,0E0,0E0,0E0,0E0,0E0,0E0,0E0,0E0,0E0,0E0,0E0],"parents":[2147483647,0,0,1,1,2,2,3,3,4,4,5,5,6,6,7,7,8,8,9,9,10,10,11,11,12,12,13,13,14,14,15,15,16,16,17,17,18,18,19,19,20,20,21,21,22,22,23,23,24,24,25,25,26,26,27,27,28,28,29,29,30,30,31,31,32,32,33,33,34,34,35,35,36,36,37,37,38,38,39,39,40,40,41,41,42,42,43,43,44,44,45,45,46,46,47,47,48,48,49,49,50,50,51,51,52,52,53,53,54,54,55,55,56,56,57,57,61,61,62,62],"right_children":[2,4,6,8,10,12,14,16,18,20,22,24,26,28,30,32,34,36,38,40,42,44,46,48,50,52,54,56,58,60,62,64,66,68,70,72,74,76,78,80,82,84,86,88,90,92,94,96,98,100,102,104,106,108,110,112,114,116,-1,-1,-1,118,120,-1,-1,-1,-1,-1,-1,-1,-1,-1,-1,-1,-1,-1,-1,-1,-1,-1,-1,-1,-1,-1,-1,-1,-1,-1,-1,-1,-1,-1,-1,-1,-1,-1,-1,-1,-1,-1,-1,-1,-1,-1,-1,-1,-1,-1,-1,-1,-1,-1,-1,-1,-1,-1,-1,-1,-1,-1,-1],"split_conditions":[1.3E2,3E0,1.35E2,1.19E2,3E0,3E0,3E0,7.12E1,2.819692E1,1.01E2,2.8384802E1,1E0,3E0,1.19E2,5.78E1,2E0,9.45E1,6E1,1E0,3.2E1,2.289282E1,1.11E2,1.72E2,2.0700817E1,1.66E2,8.1E1,3.073061E1,2.1218317E1,4.5165417E1,2.0415224E1,6.63E1,1.04E2,1E0,1.21E2,1.71E2,1E0,1E0,3.085321E1,3.4013607E1,2.3875433E1,1.58E2,2.230815E1,1.6E2,2.6533758E1,1E0,1.65E2,8.85E1,1.8314459E1,5.15E1,1.55E2,9E1,1.79E2,9.4E1,8E1,1.79E2,3E0,1.5E2,1.76E2,-6.599494E-2,1.8483872E-2,1.3066559E-1,1.51E2,1.79E2,-8.68388E-2,-6.4167365E-2,-9.1123156E-4,-4.423081E-2,-4.6347506E-2,8.064675E-2,-3.596348E-2,2.395988E-2,-5.2525707E-2,-1.12486415E-1,-1.8271117E-2,-3.617856E-2,-1.228453E-2,2.7062122E-2,-2.5281195E-2,-7.1421906E-4,-7.7991746E-3,9.376044E-2,-1.6539186E-2,-1.1935182E-1,7.942692E-2,-7.258931E-2,1.02315E-1,7.3863976E-2,-1.5324197E-2,-1.2401139E-1,-1.6133659E-2,2.2387708E-2,4.0970743E-2,1.0523533E-1,9.008509E-2,-2.7402217E-2,6.912213E-2,-6.1719216E-2,8.6509414E-2,8.78382E-3,-8.9685105E-2,2.7695438E-2,-7.606437E-2,-1.6262576E-2,9.639992E-2,-1.0085106E-3,4.9898487E-2,1.0535326E-1,-3.83576E-2,4.296381E-2,8.40111E-2,-1.9833978E-2,4.0122565E-2,9.975354E-2,6.747557E-2,7.591694E-2,5.124677E-2,-3.8191903E-2,-3.3053493E-3,9.427178E-2,5.6673642E-2,1.060102E-3],"split_indices":[4,6,4,4,7,6,7,3,11,4,11,9,7,5,3,6,3,3,10,11,11,4,2,11,2,5,11,11,11,11,3,4,10,5,2,9,10,11,11,11,2,11,2,11,10,2,3,11,3,2,5,2,3,5,2,6,4,2,0,0,0,4,2,0,0,0,0,0,0,0,0,0,0,0,0,0,0,0,0,0,0,0,0,0,0,0,0,0,0,0,0,0,0,0,0,0,0,0,0,0,0,0,0,0,0,0,0,0,0,0,0,0,0,0,0,0,0,0,0,0,0],"split_type":[0,0,0,0,0,0,0,0,0,0,0,0,0,0,0,0,0,0,0,0,0,0,0,0,0,0,0,0,0,0,0,0,0,0,0,0,0,0,0,0,0,0,0,0,0,0,0,0,0,0,0,0,0,0,0,0,0,0,0,0,0,0,0,0,0,0,0,0,0,0,0,0,0,0,0,0,0,0,0,0,0,0,0,0,0,0,0,0,0,0,0,0,0,0,0,0,0,0,0,0,0,0,0,0,0,0,0,0,0,0,0,0,0,0,0,0,0,0,0,0,0],"sum_hessian":[1.0035427E4,6.1030576E3,3.932369E3,5.674662E3,4.283954E2,1.3793245E3,2.5530444E3,1.6944412E3,3.980221E3,1.9980898E2,2.2858641E2,1.139199E3,2.4012544E2,2.2922036E3,2.608409E2,1.0794257E3,6.150155E2,2.92247E3,1.057751E3,1.4483761E1,1.8532521E2,1.6160706E2,6.6979355E1,1.0706157E3,6.858323E1,1.4233423E2,9.7791214E1,2.2674138E3,2.4789745E1,8.835243E0,2.5200568E2,9.389068E2,1.4051883E2,5.534049E2,6.161063E1,4.451062E2,2.4773638E3,2.204686E2,8.372824E2,1.08164835E1,3.6672769E0,1.7265966E1,1.6805925E2,3.0502974E1,1.3110408E2,5.9266693E1,7.712665E0,2.7030329E1,1.0435854E3,2.4364626E1,4.42186E1,8.418974E1,5.814449E1,5.9614708E1,3.8176506E1,7.083742E1,2.1965764E3,2.3256811E1,1.5329332E0,1.5943176E0,7.240926E0,3.0417196E1,2.2158847E2,2.8331204E2,6.555947E2,2.6771566E1,1.1374727E2,5.5116364E2,2.2412353E0,3.820338E1,2.340725E1,4.2797974E2,1.7126474E1,5.12619E2,1.9647448E3,9.035151E1,1.3011708E2,6.417313E2,1.955511E2,4.6497936E0,6.1666903E0,1.4490486E0,2.218228E0,1.3066321E1,4.199644E0,5.2973557E1,1.1508569E2,2.564518E1,4.857795E0,3.3667877E1,9.74362E1,4.4105858E1,1.5160833E1,1.1790539E0,6.5336113E0,3.4532409E0,2.3577087E1,6.4221005E0,1.0371633E3,2.9502804E0,2.1414345E1,2.5493666E1,1.8724937E1,8.078656E1,3.4031856E0,4.7754833E1,1.0389654E1,4.251459E0,5.5363247E1,3.6068714E1,2.1077905E0,6.4228294E1,6.6091228E0,1.2032218E3,9.9335455E2,2.0719662E1,2.53715E0,2.4639853E1,5.777343E0,2.1157419E2,1.0014295E1],"tree_param":{"num_deleted":"0","num_feature":"12","num_nodes":"121","size_leaf_vector":"1"}},{"base_weights":[-3.8704409E-3,-1.7129071E-1,4.577265E-1,-3.6879236E-1,8.649839E-2,3.9326742E-1,5.687768E-1,-4.6119967E-1,8.254879E-2,2.423628E-2,5.0131595E-1,3.435288E-1,5.7168454E-1,-3.1126776E-1,5.7396954E-1,-7.3108554E-1,-3.7697837E-1,-7.797209E-2,3.9579034E-1,-6.161986E-2,2.3718576E-1,2.4409655E-1,6.270316E-1,4.0352E-2,3.680454E-1,4.3737778E-1,6.484592E-1,1.3161635E-1,-1.08243726E-1,5.315568E-1,6.994033E-1,-1.0001712E0,-6.741084E-1,-6.053875E-1,-3.095529E-1,-2.7823663E-1,1.208611E-1,7.6092786E-1,6.0209326E-2,-3.5762623E-1,-2.8387465E-2,2.1116567E-1,7.0632356E-1,2.9841158E-1,-1.152108E0,4.1864654E-1,6.8389297E-1,-3.2633644E-1,2.9944232E-1,3.4390455E-1,6.024426E-1,-6.394332E-1,4.6971822E-1,7.7855724E-1,5.610151E-1,8.4085144E-2,-9.308034E-2,6.994952E-1,4.8595643E-1,9.366868E-1,5.8538514E-1,-9.299467E-2,-1.2062544E-1,-8.182939E-2,-5.794965E-2,-7.680881E-2,-5.064444E-2,-3.9028253E-2,-1.6420614E-2,-5.953303E-2,-2.0399613E-2,-4.2251047E-2,1.6278943E-2,9.202446E-3,8.49994E-2,-7.121385E-3,9.394374E-2,-2.9377997E-2,-8.5910454E-2,-5.6322115E-3,1.1660013E-2,-2.7323997E-2,2.3448266E-2,-4.460279E-2,8.113957E-2,1.8958973E-2,8.032762E-2,-1.3847074E-1,-1.4675912E-2,5.0455242E-2,-3.8875695E-2,-7.85466E-2,6.969756E-2,6.089182E-3,-6.6747986E-2,4.8513968E-2,-1.3208309E-3,4.3703217E-2,3.0200271E-2,-5.6299377E-2,6.2444206E-2,-1.650865E-1,1.8814467E-2,5.170126E-2,-1.4918533E-2,8.176592E-2,1.4428121E-2,1.6344717E-2,6.2231462E-2,7.231009E-2,-2.6105106E-2,3.673326E-2,5.2333396E-2,3.26231E-3,9.600871E-2,5.208793E-2,9.404059E-2],"categories":[],"categories_nodes":[],"categories_segments":[],"categories_sizes":[],"default_left":[0,0,0,0,0,0,0,0,0,0,0,0,0,0,0,0,0,0,0,0,0,0,0,0,0,0,0,0,0,0,0,0,0,0,0,0,0,0,0,0,0,0,0,0,0,0,0,0,0,0,0,0,0,0,0,0,0,0,0,0,0,0,0,0,0,0,0,0,0,0,0,0,0,0,0,0,0,0,0,0,0,0,0,0,0,0,0,0,0,0,0,0,0,0,0,0,0,0,0,0,0,0,0,0,0,0,0,0,0,0,0,0,0,0,0,0,0],"id":10,"left_children":[1,3,5,7,9,11,13,15,17,19,21,23,25,27,29,31,33,35,37,39,41,43,45,47,49,51,53,55,-1,57,59,61,63,65,67,69,71,73,75,77,79,81,83,85,87,89,91,93,95,97,99,101,103,105,107,-1,-1,109,111,113,115,-1,-1,-1,-1,-1,-1,-1,-1,-1,-1,-1,-1,-1,-1,-1,-1,-1,-1,-1,-1,-1,-1,-1,-1,-1,-1,-1,-1,-1,-1,-1,-1,-1,-1,-1,-1,-1,-1,-1,-1,-1,-1,-1,-1,-1,-1,-1,-1,-1,-1,-1,-1,-1,-1,-1,-1],"loss_changes":[7.633014E2,3.690603E2,1.859436E1,1.712096E2,8.1214615E1,1.4593567E1,4.5806885E0,7.716144E1,3.5143818E1,5.0029503E1,1.3117538E1,9.6909485E0,3.447258E0,2.2937784E0,4.7246094E0,1.1732422E1,3.9832397E1,1.8452085E1,2.8966557E1,1.9175594E1,9.448322E0,1.0685148E1,2.9724731E0,9.485868E0,6.6282043E0,4.9903145E0,2.1586914E0,4.4693074E0,0E0,5.1743774E0,5.915016E0,8.947449E-1,8.677673E0,9.128418E0,2.3501724E1,5.310669E0,5.3726387E0,6.67218E0,1.4448973E1,6.0479507E0,7.112958E0,8.493874E0,5.312746E0,7.102829E0,1.0389595E0,4.464307E0,4.6705704E0,5.508486E0,3.3984938E0,4.150772E0,3.2093697E0,3.9519653E0,3.9210644E0,2.092537E0,3.3106575E0,0E0,0E0,3.6237411E0,2.3331757E0,1.5737457E0,3.2665672E0,0E0,0E0,0E0,0E0,0E0,0E0,0E0,0E0,0E0,0E0,0E0,0E0,0E0,0E0,0E0,0E0,0E0,0E0,0E0,0E0,0E0,0E0,0E0,0E0,0E0,0E0,0E0,0E0,0E0,0E0,0E0,0E0,0E0,0E0,0E0,0E0,0E0,0E0,0E0,0E0,0E0,0E0,0E0,0E0,0E0,0E0,0E0,0E0,0E0,0E0,0E0,0E0,0E0,0E0,0E0,0E0],"parents":[2147483647,0,0,1,1,2,2,3,3,4,4,5,5,6,6,7,7,8,8,9,9,10,10,11,11,12,12,13,13,14,14,15,15,16,16,17,17,18,18,19,19,20,20,21,21,22,22,23,23,24,24,25,25,26,26,27,27,29,29,30,30,31,31,32,32,33,33,34,34,35,35,36,36,37,37,38,38,39,39,40,40,41,41,42,42,43,43,44,44,45,45,46,46,47,47,48,48,49,49,50,50,51,51,52,52,53,53,54,54,57,57,58,58,59,59,60,60],"right_children":[2,4,6,8,10,12,14,16,18,20,22,24,26,28,30,32,34,36,38,40,42,44,46,48,50,52,54,56,-1,58,60,62,64,66,68,70,72,74,76,78,80,82,84,86,88,90,92,94,96,98,100,102,104,106,108,-1,-1,110,112,114,116,-1,-1,-1,-1,-1,-1,-1,-1,-1,-1,-1,-1,-1,-1,-1,-1,-1,-1,-1,-1,-1,-1,-1,-1,-1,-1,-1,-1,-1,-1,-1,-1,-1,-1,-1,-1,-1,-1,-1,-1,-1,-1,-1,-1,-1,-1,-1,-1,-1,-1,-1,-1,-1,-1,-1,-1],"split_conditions":[8.8E1,5.5E1,2E0,2E0,3E0,9.8E1,4.9E1,4.4E1,3E0,6.1E1,2.5648918E1,2.249135E1,7.32E1,2.0415224E1,6E1,5.92E1,6.23E1,7.21E1,3E0,2.2038567E1,3.631082E1,2.547666E1,7.12E1,5.2E1,3.6051914E1,4.1E1,8.35E1,1.57E2,-1.08243726E-1,4.9E1,2.7041645E1,2.2857143E1,4.1E1,7.4E1,5.2E1,2.1799309E1,4.1E1,2.2857143E1,3.287197E1,1E0,3.1887754E1,2.0700817E1,1.5E2,6.3E1,6.1E1,2E0,1.46E2,4.8E1,2E0,2.5605536E1,7.65E1,2.2600264E1,1.14E2,3.4312523E1,8.55E1,8.4085144E-2,-9.308034E-2,4.3359375E1,6.95E1,1.51E2,3.7877213E1,-9.299467E-2,-1.2062544E-1,-8.182939E-2,-5.794965E-2,-7.680881E-2,-5.064444E-2,-3.9028253E-2,-1.6420614E-2,-5.953303E-2,-2.0399613E-2,-4.2251047E-2,1.6278943E-2,9.202446E-3,8.49994E-2,-7.121385E-3,9.394374E-2,-2.9377997E-2,-8.5910454E-2,-5.6322115E-3,1.1660013E-2,-2.7323997E-2,2.3448266E-2,-4.460279E-2,8.113957E-2,1.8958973E-2,8.032762E-2,-1.3847074E-1,-1.4675912E-2,5.0455242E-2,-3.8875695E-2,-7.85466E-2,6.969756E-2,6.089182E-3,-6.6747986E-2,4.8513968E-2,-1.3208309E-3,4.3703217E-2,3.0200271E-2,-5.6299377E-2,6.2444206E-2,-1.650865E-1,1.8814467E-2,5.170126E-2,-1.4918533E-2,8.176592E-2,1.4428121E-2,1.6344717E-2,6.2231462E-2,7.231009E-2,-2.6105106E-2,3.673326E-2,5.2333396E-2,3.26231E-3,9.600871E-2,5.208793E-2,9.404059E-2],"split_indices":[5,0,6,6,6,5,3,0,6,0,11,11,3,11,0,3,3,3,7,11,11,11,3,0,11,0,3,2,0,0,11,11,0,5,0,11,0,11,11,8,11,11,2,0,0,1,2,0,1,11,3,11,5,11,3,0,0,11,3,2,11,0,0,0,0,0,0,0,0,0,0,0,0,0,0,0,0,0,0,0,0,0,0,0,0,0,0,0,0,0,0,0,0,0,0,0,0,0,0,0,0,0,0,0,0,0,0,0,0,0,0,0,0,0,0,0,0],"split_type":[0,0,0,0,0,0,0,0,0,0,0,0,0,0,0,0,0,0,0,0,0,0,0,0,0,0,0,0,0,0,0,0,0,0,0,0,0,0,0,0,0,0,0,0,0,0,0,0,0,0,0,0,0,0,0,0,0,0,0,0,0,0,0,0,0,0,0,0,0,0,0,0,0,0,0,0,0,0,0,0,0,0,0,0,0,0,0,0,0,0,0,0,0,0,0,0,0,0,0,0,0,0,0,0,0,0,0,0,0,0,0,0,0,0,0,0,0],"sum_hessian":[9.874987E3,7.2471055E3,2.6278816E3,4.1031226E3,3.1439827E3,1.6656168E3,9.622648E2,3.4057996E3,6.9732324E2,2.734592E3,4.093906E2,1.304795E3,3.6082172E2,5.2988815E0,9.569659E2,8.08213E2,2.5975864E3,4.6155173E2,2.3577147E2,1.9493652E3,7.852268E2,1.3536664E2,2.7402396E2,9.781698E1,1.206978E3,1.3367406E2,2.2714767E2,3.8926528E0,1.4062289E0,7.190664E2,2.3789946E2,1.3833682E2,6.698762E2,5.902132E2,2.0073733E3,2.2974925E2,2.3180249E2,1.1230627E2,1.2346521E2,1.9577792E2,1.7535873E3,7.453378E2,3.9889027E1,1.3105464E2,4.3120055E0,6.0535683E1,2.1348827E2,4.0391567E1,5.7425407E1,1.0965142E3,1.10463974E2,3.3502946E0,1.3032376E2,8.812824E1,1.3901942E2,2.4593952E0,1.4332573E0,1.5049158E2,5.685748E2,7.487068E1,1.6302878E2,1.0728949E2,3.1047337E1,2.623754E2,4.075008E2,2.2063744E2,3.6957578E2,1.2894769E3,7.1789636E2,4.225445E1,1.874948E2,1.5955081E1,2.1584741E2,1.3435594E1,9.8870674E1,1.08209526E2,1.5255684E1,1.7507402E2,2.070391E1,1.4708175E3,2.8276974E2,3.373714E1,7.1160065E2,3.0620296E0,3.6827E1,1.0894701E2,2.2107628E1,3.195377E0,1.1166286E0,5.5053238E1,5.4824433E0,1.3630258E0,2.1212524E2,1.930274E1,2.1088829E1,3.5681095E1,2.1744312E1,3.373401E2,7.59174E2,1.5909448E0,1.0887303E2,1.0599958E0,2.2902987E0,1.2122483E2,9.098934E0,8.273845E1,5.389795E0,1.9061218E1,1.19958206E2,1.4712318E2,3.3683903E0,1.3882332E2,4.2975153E2,1.9494269E0,7.292126E1,1.4004953E2,2.2979256E1],"tree_param":{"num_deleted":"0","num_feature":"12","num_nodes":"117","size_leaf_vector":"1"}},{"base_weights":[1.049966E-3,-2.0076977E-1,6.048316E-1,-2.6327074E-1,4.5370224E-1,7.32615E-1,5.7715124E-1,-4.85762E-1,-9.644651E-2,2.0477371E-1,5.9928375E-1,6.604858E-1,9.0142703E-1,5.270806E-1,6.353492E-1,-5.454035E-1,-8.488777E-2,-1.8033987E-1,5.2076258E-2,9.772859E-2,6.5530986E-1,-3.2852805E-1,6.135356E-1,8.7439686E-2,6.779473E-1,9.19122E-1,-2.8918473E-2,4.863497E-1,6.2592894E-1,6.9101375E-1,5.5292654E-1,-5.8953106E-1,-2.0284042E-1,-4.1466781E-1,-8.895602E-3,2.180304E-3,-2.2839096E-1,-1.2959553E-2,2.250971E-1,-1.8550967E-1,1.7236942E-1,3.9914614E-1,8.747724E-1,-1.2092068E-1,2.6900822E-1,1.09953634E-1,6.3232255E-1,3.450949E-1,-9.688352E-2,7.070387E-1,3.6336255E-1,9.6953225E-1,4.6127638E-1,1.0138093E-1,4.9723738E-1,7.113111E-1,5.280032E-1,-7.6127656E-2,6.968642E-1,-1.4954531E-2,5.743866E-1,-7.331965E-2,-4.9909726E-2,-3.657865E-2,-2.24111E-3,-5.589301E-2,3.9747067E-2,1.4642946E-2,-1.6324446E-2,-7.2168927E-3,3.0628562E-2,-6.298175E-2,-2.0807765E-2,9.017351E-4,-5.2730497E-2,-4.9252223E-2,2.5705693E-2,7.678465E-2,-2.7240781E-2,1.4869265E-1,1.0121366E-2,5.714224E-2,-1.6931769E-2,1.0465603E-1,3.6029972E-2,-2.3438176E-2,8.966556E-2,7.923246E-2,-1.1243003E-2,8.6711824E-2,6.0093302E-2,2.1285748E-3,6.909821E-2,7.441913E-2,4.5162525E-2,-4.6363305E-2,5.0114807E-2,8.2466245E-2,1.1237754E-1,-3.2201536E-2,7.229143E-2,-1.5186465E-2,8.857579E-2,5.0117876E-2,-1.5834978E-2,7.405433E-2,-2.511446E-2,-6.03027E-3,5.931591E-2,3.1922057E-2,7.098076E-2,-4.5462754E-2,9.025052E-2,5.813369E-2,-5.8618426E-2],"categories":[],"categories_nodes":[],"categories_segments":[],"categories_sizes":[],"default_left":[0,0,0,0,0,0,0,0,0,0,0,0,0,0,0,0,0,0,0,0,0,0,0,0,0,0,0,0,0,0,0,0,0,0,0,0,0,0,0,0,0,0,0,0,0,0,0,0,0,0,0,0,0,0,0,0,0,0,0,0,0,0,0,0,0,0,0,0,0,0,0,0,0,0,0,0,0,0,0,0,0,0,0,0,0,0,0,0,0,0,0,0,0,0,0,0,0,0,0,0,0,0,0,0,0,0,0,0,0,0,0,0,0,0,0],"id":11,"left_children":[1,3,5,7,9,11,13,15,17,19,21,23,25,27,29,31,33,35,37,39,41,43,45,47,49,51,-1,53,55,57,59,61,63,65,67,69,71,73,75,77,79,81,83,-1,85,87,89,91,-1,93,95,97,99,101,103,105,107,-1,109,111,113,-1,-1,-1,-1,-1,-1,-1,-1,-1,-1,-1,-1,-1,-1,-1,-1,-1,-1,-1,-1,-1,-1,-1,-1,-1,-1,-1,-1,-1,-1,-1,-1,-1,-1,-1,-1,-1,-1,-1,-1,-1,-1,-1,-1,-1,-1,-1,-1,-1,-1,-1,-1,-1,-1],"loss_changes":[1.1869985E3,2.9875696E2,8.208862E0,2.473353E2,2.2954437E1,4.6500397E0,5.5238647E0,6.823035E1,4.748498E1,1.1342242E1,5.5077972E0,2.9983215E0,2.9250107E0,4.0704346E0,3.8615723E0,3.7455322E1,9.294571E0,2.1357018E1,1.5487764E1,4.0969734E0,2.193596E0,3.862694E0,3.6728363E0,3.1059108E0,2.4555054E0,2.4288483E0,0E0,3.1937714E0,2.24646E0,5.187256E0,4.613472E0,2.8236572E1,8.376215E0,8.360592E0,7.277692E0,1.1518502E1,1.5587448E1,1.1321092E1,8.750229E0,3.57136E0,1.4132315E1,2.320723E0,1.701704E0,0E0,1.7339427E0,2.4316137E0,2.2878876E0,9.8481166E-1,0E0,2.2282715E0,3.3255255E0,1.5612946E0,3.1566548E0,4.612747E0,2.0236206E0,4.8183365E0,5.7836227E0,0E0,2.4443054E0,6.353696E0,3.2779388E0,0E0,0E0,0E0,0E0,0E0,0E0,0E0,0E0,0E0,0E0,0E0,0E0,0E0,0E0,0E0,0E0,0E0,0E0,0E0,0E0,0E0,0E0,0E0,0E0,0E0,0E0,0E0,0E0,0E0,0E0,0E0,0E0,0E0,0E0,0E0,0E0,0E0,0E0,0E0,0E0,0E0,0E0,0E0,0E0,0E0,0E0,0E0,0E0,0E0,0E0,0E0,0E0,0E0,0E0],"parents":[2147483647,0,0,1,1,2,2,3,3,4,4,5,5,6,6,7,7,8,8,9,9,10,10,11,11,12,12,13,13,14,14,15,15,16,16,17,17,18,18,19,19,20,20,21,21,22,22,23,23,24,24,25,25,27,27,28,28,29,29,30,30,31,31,32,32,33,33,34,34,35,35,36,36,37,37,38,38,39,39,40,40,41,41,42,42,44,44,45,45,46,46,47,47,49,49,50,50,51,51,52,52,53,53,54,54,55,55,56,56,58,58,59,59,60,60],"right_children":[2,4,6,8,10,12,14,16,18,20,22,24,26,28,30,32,34,36,38,40,42,44,46,48,50,52,-1,54,56,58,60,62,64,66,68,70,72,74,76,78,80,82,84,-1,86,88,90,92,-1,94,96,98,100,102,104,106,108,-1,110,112,114,-1,-1,-1,-1,-1,-1,-1,-1,-1,-1,-1,-1,-1,-1,-1,-1,-1,-1,-1,-1,-1,-1,-1,-1,-1,-1,-1,-1,-1,-1,-1,-1,-1,-1,-1,-1,-1,-1,-1,-1,-1,-1,-1,-1,-1,-1,-1,-1,-1,-1,-1,-1,-1,-1],"split_conditions":[1.35E2,3E0,4.9E1,5.2E1,2.5648918E1,4.7E1,1.5E2,1.29E2,5.9E1,6.1E1,4.1E1,5.52E1,1.2E2,6E1,9.2E1,2E0,4.3E1,1E0,6.3E1,2.2213678E1,6.41E1,7.95E1,1.06E2,2.2959087E1,1E0,1E2,-2.8918473E-2,1.39E2,2.8384802E1,4.3E1,9.8E1,4.5E1,2.6709402E1,2E0,4.9E1,3.0405293E1,5.45E1,1E0,2.0549887E1,4.8E1,2.249135E1,6.23E1,2.489706E1,-1.2092068E-1,1.21E2,7.12E1,6.89E1,5.3E1,-9.688352E-2,4.6E1,6.82E1,1.46E2,3.5055634E1,3E0,4.8683517E1,1.42E2,2.9069767E1,-7.6127656E-2,2.1295294E1,8.55E1,1.44E2,-7.331965E-2,-4.9909726E-2,-3.657865E-2,-2.24111E-3,-5.589301E-2,3.9747067E-2,1.4642946E-2,-1.6324446E-2,-7.2168927E-3,3.0628562E-2,-6.298175E-2,-2.0807765E-2,9.017351E-4,-5.2730497E-2,-4.9252223E-2,2.5705693E-2,7.678465E-2,-2.7240781E-2,1.4869265E-1,1.0121366E-2,5.714224E-2,-1.6931769E-2,1.0465603E-1,3.6029972E-2,-2.3438176E-2,8.966556E-2,7.923246E-2,-1.1243003E-2,8.6711824E-2,6.0093302E-2,2.1285748E-3,6.909821E-2,7.441913E-2,4.5162525E-2,-4.6363305E-2,5.0114807E-2,8.2466245E-2,1.1237754E-1,-3.2201536E-2,7.229143E-2,-1.5186465E-2,8.857579E-2,5.0117876E-2,-1.5834978E-2,7.405433E-2,-2.511446E-2,-6.03027E-3,5.931591E-2,3.1922057E-2,7.098076E-2,-4.5462754E-2,9.025052E-2,5.813369E-2,-5.8618426E-2],"split_indices":[4,6,0,0,11,0,4,4,0,0,0,3,5,0,5,6,0,10,0,11,3,3,4,11,9,3,0,4,11,3,5,0,11,6,0,11,3,9,11,3,11,3,11,0,4,3,3,3,0,0,3,4,11,6,11,4,11,0,11,3,3,0,0,0,0,0,0,0,0,0,0,0,0,0,0,0,0,0,0,0,0,0,0,0,0,0,0,0,0,0,0,0,0,0,0,0,0,0,0,0,0,0,0,0,0,0,0,0,0,0,0,0,0,0,0],"split_type":[0,0,0,0,0,0,0,0,0,0,0,0,0,0,0,0,0,0,0,0,0,0,0,0,0,0,0,0,0,0,0,0,0,0,0,0,0,0,0,0,0,0,0,0,0,0,0,0,0,0,0,0,0,0,0,0,0,0,0,0,0,0,0,0,0,0,0,0,0,0,0,0,0,0,0,0,0,0,0,0,0,0,0,0,0,0,0,0,0,0,0,0,0,0,0,0,0,0,0,0,0,0,0,0,0,0,0,0,0,0,0,0,0,0,0],"sum_hessian":[9.739074E3,7.2997354E3,2.4393384E3,6.6639385E3,6.357971E2,4.2978955E2,2.0095488E3,2.8547217E3,3.8092168E3,2.3550902E2,4.002881E2,3.0456775E2,1.2522178E2,1.085605E3,9.239438E2,2.4846921E3,3.7002954E2,2.4340977E3,1.3751189E3,1.91279E2,4.423002E1,5.7220745E0,3.94566E2,9.183806E0,2.9538394E2,1.2361266E2,1.609114E0,7.7300494E2,3.1260007E2,5.470842E2,3.768596E2,2.2005105E3,2.8418167E2,6.8463715E1,3.0156583E2,5.0746533E2,1.9266324E3,1.00011615E3,3.750028E2,3.9584194E1,1.5169481E2,2.1709148E1,2.2520868E1,1.8992342E0,3.8228402E0,1.44369755E1,3.8012903E2,7.924169E0,1.2596375E0,2.6923843E2,2.6145515E1,1.1034565E2,1.3267017E1,2.1544462E1,7.514605E2,1.6364925E2,1.4895084E2,1.6769502E0,5.454073E2,1.3733894E1,3.631257E2,8.473236E2,1.3531869E3,1.4878569E2,1.3539598E2,5.8401485E1,1.0062228E1,1.5033316E2,1.5123267E2,4.0838416E2,9.908117E1,9.135199E1,1.8352804E3,9.6007654E2,4.0039593E1,1.537458E1,3.5962823E2,2.6520867E0,3.6932106E1,6.7677727E0,1.4492703E2,1.6656189E1,5.05296E0,1.6107998E1,6.412871E0,2.469115E0,1.3537252E0,2.9185884E0,1.1518387E1,4.168653E1,3.384425E2,4.6409717E0,3.2831974E0,2.3337749E2,3.5860947E1,3.3962367E0,2.2749279E1,6.0174473E1,5.0171177E1,3.2641208E0,1.0002896E1,1.6895828E1,4.648634E0,7.472039E2,4.2566023E0,1.5904909E2,4.600151E0,1.4859124E1,1.340917E2,1.8924358E1,5.264829E2,9.625533E0,4.1083603E0,3.614601E2,1.6655842E0],"tree_param":{"num_deleted":"0","num_feature":"12","num_nodes":"115","size_leaf_vector":"1"}},{"base_weights":[5.155131E-3,-2.6022658E-1,4.2049453E-1,-4.608632E-1,-1.0664547E-1,1.4744091E-1,5.835982E-1,-5.297077E-1,-7.355617E-2,-1.467973E-1,3.0459902E-1,5.8962233E-2,5.7139146E-1,6.042922E-1,3.9940378E-1,-6.889982E-1,-4.4585088E-1,-2.4486274E-1,1.4449409E-1,-1.9850531E-1,7.195497E-2,1.5349607E-1,4.8127678E-1,9.773721E-2,-2.6868385E-1,6.582532E-1,4.3406364E-1,5.609544E-1,6.540914E-1,2.7736348E-1,5.601091E-1,-7.486456E-1,-4.5522988E-1,-6.54128E-1,-3.8268182E-1,-3.3120936E-1,-3.4771066E-2,2.913778E-2,4.5484635E-1,-5.1804507E-1,-1.7569597E-1,-3.66667E-1,9.322933E-2,1.9821769E-1,-9.629672E-1,-1.5801297E-1,5.307772E-1,1.1374554E-1,-3.4795383E-1,-3.7035295E-1,1.8393306E-1,7.7921194E-1,4.8560202E-1,9.925211E-2,3.9145654E-1,7.124712E-1,5.341424E-1,7.10729E-1,5.7223123E-1,2.2940142E-1,1.0650359E0,7.2694165E-1,3.3060753E-1,-7.709036E-2,-3.87689E-2,-6.1148196E-2,-2.227284E-2,-7.605868E-2,-5.473689E-2,-3.9593145E-2,4.4641968E-2,-2.9671768E-2,-8.15826E-2,4.5882042E-2,-2.9462367E-2,-1.5693258E-2,2.8140549E-2,8.1147656E-2,-1.6494725E-3,-5.682537E-2,4.4881206E-2,-1.5488754E-2,-4.436516E-2,-8.6765446E-2,7.0844736E-4,1.7886931E-2,-3.6176771E-3,1.5182289E-2,9.964132E-2,-2.9607305E-2,-1.2448418E-1,-4.2162385E-2,9.224472E-2,8.6528264E-2,4.516527E-2,4.8353025E-3,2.1091402E-2,-1.1048724E-1,-2.1101533E-2,-6.492521E-2,-2.1508314E-2,4.1644864E-2,-3.2577585E-2,9.600738E-2,5.4820377E-2,9.650301E-2,3.5422843E-2,2.8560614E-2,6.028793E-2,9.698402E-2,5.9547544E-2,5.373442E-2,-3.364848E-2,6.8409316E-2,8.7520085E-2,-6.4138323E-3,5.9144277E-2,-7.354963E-2,2.52036E-2,3.029719E-2,1.15931116E-1,-5.9713114E-2,7.623537E-2,6.0074218E-2,1.3373739E-2],"categories":[],"categories_nodes":[],"categories_segments":[],"categories_sizes":[],"default_left":[0,0,0,0,0,0,0,0,0,0,0,0,0,0,0,0,0,0,0,0,0,0,0,0,0,0,0,0,0,0,0,0,0,0,0,0,0,0,0,0,0,0,0,0,0,0,0,0,0,0,0,0,0,0,0,0,0,0,0,0,0,0,0,0,0,0,0,0,0,0,0,0,0,0,0,0,0,0,0,0,0,0,0,0,0,0,0,0,0,0,0,0,0,0,0,0,0,0,0,0,0,0,0,0,0,0,0,0,0,0,0,0,0,0,0,0,0,0,0,0,0,0,0,0,0],"id":12,"left_children":[1,3,5,7,9,11,13,15,17,19,21,23,25,27,29,31,33,35,37,39,41,43,45,47,49,51,53,55,57,59,61,63,65,67,69,71,73,75,77,79,81,83,85,87,89,91,93,95,97,99,101,103,105,-1,107,109,111,113,115,117,119,121,123,-1,-1,-1,-1,-1,-1,-1,-1,-1,-1,-1,-1,-1,-1,-1,-1,-1,-1,-1,-1,-1,-1,-1,-1,-1,-1,-1,-1,-1,-1,-1,-1,-1,-1,-1,-1,-1,-1,-1,-1,-1,-1,-1,-1,-1,-1,-1,-1,-1,-1,-1,-1,-1,-1,-1,-1,-1,-1,-1,-1,-1,-1],"loss_changes":[1.06455E3,1.8153363E2,1.6760297E2,6.8079895E1,5.5181484E1,5.2832752E1,8.742371E0,2.8665344E1,1.4481116E1,3.443222E1,7.864168E0,1.4854145E1,2.6156998E0,4.201721E0,4.5711975E0,1.0064026E1,1.8481903E1,3.9241257E0,6.1008635E0,1.7848381E1,5.4694777E0,8.266565E0,4.406704E0,7.490882E0,5.7638674E0,2.6927261E0,1.9237251E0,4.246155E0,4.1322327E0,5.0052547E0,3.7048721E0,4.465088E0,5.4673576E0,3.3333893E0,1.2204071E1,2.3260612E0,8.38375E0,5.93843E0,7.7808084E0,8.190884E0,1.27491E1,5.08935E0,6.171864E0,5.638327E0,8.34497E-1,3.4045284E0,2.9709892E0,6.4004936E0,3.5456953E0,4.2515783E0,2.9055243E0,3.0175247E0,3.641117E0,0E0,1.8853493E0,4.4883194E0,2.8893433E0,1.9180908E0,4.995178E0,3.0738516E0,2.02034E-1,3.2137394E0,2.3238564E0,0E0,0E0,0E0,0E0,0E0,0E0,0E0,0E0,0E0,0E0,0E0,0E0,0E0,0E0,0E0,0E0,0E0,0E0,0E0,0E0,0E0,0E0,0E0,0E0,0E0,0E0,0E0,0E0,0E0,0E0,0E0,0E0,0E0,0E0,0E0,0E0,0E0,0E0,0E0,0E0,0E0,0E0,0E0,0E0,0E0,0E0,0E0,0E0,0E0,0E0,0E0,0E0,0E0,0E0,0E0,0E0,0E0,0E0,0E0,0E0,0E0,0E0],"parents":[2147483647,0,0,1,1,2,2,3,3,4,4,5,5,6,6,7,7,8,8,9,9,10,10,11,11,12,12,13,13,14,14,15,15,16,16,17,17,18,18,19,19,20,20,21,21,22,22,23,23,24,24,25,25,26,26,27,27,28,28,29,29,30,30,31,31,32,32,33,33,34,34,35,35,36,36,37,37,38,38,39,39,40,40,41,41,42,42,43,43,44,44,45,45,46,46,47,47,48,48,49,49,50,50,51,51,52,52,54,54,55,55,56,56,57,57,58,58,59,59,60,60,61,61,62,62],"right_children":[2,4,6,8,10,12,14,16,18,20,22,24,26,28,30,32,34,36,38,40,42,44,46,48,50,52,54,56,58,60,62,64,66,68,70,72,74,76,78,80,82,84,86,88,90,92,94,96,98,100,102,104,106,-1,108,110,112,114,116,118,120,122,124,-1,-1,-1,-1,-1,-1,-1,-1,-1,-1,-1,-1,-1,-1,-1,-1,-1,-1,-1,-1,-1,-1,-1,-1,-1,-1,-1,-1,-1,-1,-1,-1,-1,-1,-1,-1,-1,-1,-1,-1,-1,-1,-1,-1,-1,-1,-1,-1,-1,-1,-1,-1,-1,-1,-1,-1,-1,-1,-1,-1,-1,-1],"split_conditions":[1.29E2,5.2E1,1.39E2,2E0,3E0,3E0,3E0,1.19E2,7.32E1,6.1E1,7.21E1,1E0,3E0,1.5E2,1.46E2,7.8E1,4.3E1,3E0,3E0,1.1E2,5.3E1,1E0,1.06E2,1E0,6E1,8.1E1,4.6E1,4.7E1,9.2E1,6.4E1,9.5E1,2E0,4.8E1,4.1E1,1.055E2,1E0,3E0,2E0,3E0,8.6E1,1E0,7.1E1,2E0,6.4E1,2E0,1E0,1.16E2,5.7E1,4.3E1,7.32E1,8.05E1,5.9E1,4.9E1,9.925211E-2,6E1,9E1,1.48E2,9.6E1,9.7E1,4.3E1,6.38E1,5.32E1,5.6E1,-7.709036E-2,-3.87689E-2,-6.1148196E-2,-2.227284E-2,-7.605868E-2,-5.473689E-2,-3.9593145E-2,4.4641968E-2,-2.9671768E-2,-8.15826E-2,4.5882042E-2,-2.9462367E-2,-1.5693258E-2,2.8140549E-2,8.1147656E-2,-1.6494725E-3,-5.682537E-2,4.4881206E-2,-1.5488754E-2,-4.436516E-2,-8.6765446E-2,7.0844736E-4,1.7886931E-2,-3.6176771E-3,1.5182289E-2,9.964132E-2,-2.9607305E-2,-1.2448418E-1,-4.2162385E-2,9.224472E-2,8.6528264E-2,4.516527E-2,4.8353025E-3,2.1091402E-2,-1.1048724E-1,-2.1101533E-2,-6.492521E-2,-2.1508314E-2,4.1644864E-2,-3.2577585E-2,9.600738E-2,5.4820377E-2,9.650301E-2,3.5422843E-2,2.8560614E-2,6.028793E-2,9.698402E-2,5.9547544E-2,5.373442E-2,-3.364848E-2,6.8409316E-2,8.7520085E-2,-6.4138323E-3,5.9144277E-2,-7.354963E-2,2.52036E-2,3.029719E-2,1.15931116E-1,-5.9713114E-2,7.623537E-2,6.0074218E-2,1.3373739E-2],"split_indices":[4,0,4,6,6,6,7,4,3,0,3,8,7,4,4,3,0,6,6,4,3,9,4,9,0,5,0,0,5,0,5,7,0,0,3,9,7,1,7,5,8,5,1,0,1,8,4,0,0,3,3,0,0,0,0,5,4,3,5,0,3,3,0,0,0,0,0,0,0,0,0,0,0,0,0,0,0,0,0,0,0,0,0,0,0,0,0,0,0,0,0,0,0,0,0,0,0,0,0,0,0,0,0,0,0,0,0,0,0,0,0,0,0,0,0,0,0,0,0,0,0,0,0,0,0],"split_type":[0,0,0,0,0,0,0,0,0,0,0,0,0,0,0,0,0,0,0,0,0,0,0,0,0,0,0,0,0,0,0,0,0,0,0,0,0,0,0,0,0,0,0,0,0,0,0,0,0,0,0,0,0,0,0,0,0,0,0,0,0,0,0,0,0,0,0,0,0,0,0,0,0,0,0,0,0,0,0,0,0,0,0,0,0,0,0,0,0,0,0,0,0,0,0,0,0,0,0,0,0,0,0,0,0,0,0,0,0,0,0,0,0,0,0,0,0,0,0,0,0,0,0,0,0],"sum_hessian":[9.656112E3,5.891868E3,3.7642444E3,2.5537185E3,3.3381497E3,1.4083741E3,2.3558704E3,2.1679875E3,3.8573105E2,3.0418062E3,2.9634354E2,1.1661394E3,2.4223476E2,2.1158738E3,2.3999654E2,7.4520795E2,1.4227795E3,2.1595087E2,1.6978018E2,2.4603325E3,5.814736E2,1.6074005E2,1.3560349E2,1.043365E3,1.2277438E2,1.4605783E2,9.617693E1,1.1378894E3,9.7798444E2,1.3795717E2,1.0203937E2,5.9196265E2,1.5324533E2,3.289222E2,1.0938573E3,1.5264006E2,6.3310802E1,1.24571495E2,4.5208687E1,1.624755E2,2.2978572E3,2.6147375E1,5.553262E2,1.5534012E2,5.3999233E0,9.587709E0,1.2601577E2,1.0079078E3,3.545724E1,1.00403076E2,2.23713E1,8.382039E1,6.2237434E1,5.2372174E0,9.093971E1,1.6723827E2,9.7065106E2,5.735048E2,4.0447958E2,1.3125612E2,6.7010555E0,5.7831898E1,4.420747E1,5.565103E2,3.545234E1,9.067644E1,6.2568893E1,1.6162631E2,1.6729591E2,1.0771659E3,1.6691433E1,1.4400317E2,8.636888E0,2.1570957E1,4.1739845E1,7.190957E1,5.266193E1,2.5325245E1,1.988344E1,1.5484662E2,7.628873E0,2.133737E3,1.6412004E2,1.0607414E1,1.5539962E1,3.3394302E2,2.2138316E2,1.4793185E2,7.4082713E0,2.2134466E0,3.1864767E0,8.197464E0,1.3902452E0,2.2205307E1,1.0381047E2,6.033574E2,4.0455032E2,4.349161E0,3.110808E1,3.4768925E1,6.5634155E1,1.5488727E1,6.8825736E0,4.5242744E1,3.857765E1,1.2021409E1,5.0216022E1,6.2166473E1,2.8773243E1,4.998686E1,1.1725141E2,9.674759E2,3.1751728E0,4.980122E2,7.549263E1,1.1784579E1,3.92695E2,2.2865734E0,1.2896954E2,1.2016159E0,5.4994397E0,1.0932251E0,5.673867E1,1.7771254E1,2.6436216E1],"tree_param":{"num_deleted":"0","num_feature":"12","num_nodes":"125","size_leaf_vector":"1"}},{"base_weights":[-3.946931E-4,-2.3490362E-1,3.7218854E-1,-3.8037595E-1,-2.5715308E-2,1.4579791E-1,5.1014E-1,-4.437503E-1,-4.6224806E-2,-7.238791E-2,3.9085314E-1,6.45008E-2,5.516903E-1,5.4296774E-1,3.8563147E-1,-6.848639E-1,-3.882586E-1,-6.609682E-1,3.6562365E-3,-1.2288304E-1,1.3369079E-1,4.5756165E-2,5.2816206E-1,9.8817505E-2,-2.078039E-1,5.8913875E-1,1.6732097E-1,6.131692E-1,5.0160265E-1,3.4407482E-1,7.4883157E-1,-7.1744454E-1,-1.3440661E-1,-5.5584466E-1,-3.196562E-1,-9.0762615E-1,-3.6674392E-1,-5.702779E-1,4.8892472E-2,-1.4557114E-1,1.936635E-1,1.5024017E-1,-3.0893114E-1,-1.2589894E-1,4.44552E-1,6.754566E-1,3.4419662E-1,-2.948068E-1,1.2025831E-1,-2.679024E-1,3.309962E-1,7.356553E-1,5.03568E-1,-7.3805815E-1,4.5017898E-1,-1.49756465E-2,6.315882E-1,4.555514E-1,5.9753704E-1,3.6531237E-1,-6.2368162E-2,8.8893616E-1,2.7809998E-1,-9.915105E-2,-6.542473E-2,-7.182365E-2,3.0240102E-2,-5.243648E-2,-9.886449E-2,-3.3389788E-2,1.3270088E-2,-9.299662E-2,-2.3632713E-2,7.0823E-2,-5.0021738E-2,-6.752986E-2,2.4051083E-2,-3.962317E-3,2.435991E-2,-1.220955E-2,-4.4579897E-2,7.120021E-2,1.3295728E-2,5.52465E-3,2.4848783E-2,-9.148682E-2,-1.2819613E-2,1.430112E-2,-4.338464E-2,8.671423E-2,-2.0606961E-2,1.7319513E-2,7.459916E-2,1.753987E-2,5.2788027E-2,9.463799E-2,-3.8594134E-2,2.0125981E-2,3.3422203E-3,-1.5082789E-2,-6.640894E-2,-4.1918628E-2,5.3608574E-2,5.529642E-2,9.823787E-2,3.7337255E-2,7.2077736E-2,2.0247288E-2,-1.2119635E-1,6.3433066E-2,-3.720277E-2,2.4690429E-2,-8.1949964E-2,4.2803127E-2,6.631813E-2,5.2408405E-2,3.7718583E-2,6.085819E-2,-8.11569E-2,5.9644967E-2,3.2658607E-2,-2.4630636E-2,6.674E-2,1.2182962E-2,9.247692E-2,6.9128625E-2,-8.807319E-4],"categories":[],"categories_nodes":[],"categories_segments":[],"categories_sizes":[],"default_left":[0,0,0,0,0,0,0,0,0,0,0,0,0,0,0,0,0,0,0,0,0,0,0,0,0,0,0,0,0,0,0,0,0,0,0,0,0,0,0,0,0,0,0,0,0,0,0,0,0,0,0,0,0,0,0,0,0,0,0,0,0,0,0,0,0,0,0,0,0,0,0,0,0,0,0,0,0,0,0,0,0,0,0,0,0,0,0,0,0,0,0,0,0,0,0,0,0,0,0,0,0,0,0,0,0,0,0,0,0,0,0,0,0,0,0,0,0,0,0,0,0,0,0,0,0,0,0],"id":13,"left_children":[1,3,5,7,9,11,13,15,17,19,21,23,25,27,29,31,33,35,37,39,41,43,45,47,49,51,53,55,57,59,61,63,65,67,69,71,73,75,77,79,81,83,85,87,89,91,93,95,97,99,101,103,105,107,109,111,113,115,117,119,121,123,125,-1,-1,-1,-1,-1,-1,-1,-1,-1,-1,-1,-1,-1,-1,-1,-1,-1,-1,-1,-1,-1,-1,-1,-1,-1,-1,-1,-1,-1,-1,-1,-1,-1,-1,-1,-1,-1,-1,-1,-1,-1,-1,-1,-1,-1,-1,-1,-1,-1,-1,-1,-1,-1,-1,-1,-1,-1,-1,-1,-1,-1,-1,-1,-1],"loss_changes":[8.2863605E2,1.771102E2,1.143374E2,7.267734E1,4.6464912E1,4.5781464E1,9.093079E0,3.834192E1,1.6818611E1,2.2375032E1,1.1385929E1,1.0840845E1,3.2345505E0,4.9154663E0,6.961754E0,9.561951E0,2.681668E1,2.6545048E0,1.3223056E1,1.2426128E1,3.147441E0,4.822751E0,4.4326096E0,8.719873E0,4.2954755E0,2.2700577E0,5.954686E0,7.672943E0,4.752014E0,3.7436028E0,2.935545E0,8.153748E0,8.205678E0,8.754898E0,1.0792389E1,1.0586357E-1,3.2884357E0,3.3308725E0,8.144838E0,1.130283E1,3.5517802E0,3.8011541E0,1.5895157E0,4.157777E0,6.0004582E0,3.2211838E0,2.3441582E0,6.410623E0,6.8622637E0,5.3467007E0,2.2993145E0,2.8590622E0,3.5805092E0,2.743717E0,2.8628821E0,4.3836775E0,3.8546143E0,3.9516602E0,6.184555E0,3.4733467E0,3.1523104E0,8.970909E-1,1.4907849E0,0E0,0E0,0E0,0E0,0E0,0E0,0E0,0E0,0E0,0E0,0E0,0E0,0E0,0E0,0E0,0E0,0E0,0E0,0E0,0E0,0E0,0E0,0E0,0E0,0E0,0E0,0E0,0E0,0E0,0E0,0E0,0E0,0E0,0E0,0E0,0E0,0E0,0E0,0E0,0E0,0E0,0E0,0E0,0E0,0E0,0E0,0E0,0E0,0E0,0E0,0E0,0E0,0E0,0E0,0E0,0E0,0E0,0E0,0E0,0E0,0E0,0E0,0E0,0E0],"parents":[2147483647,0,0,1,1,2,2,3,3,4,4,5,5,6,6,7,7,8,8,9,9,10,10,11,11,12,12,13,13,14,14,15,15,16,16,17,17,18,18,19,19,20,20,21,21,22,22,23,23,24,24,25,25,26,26,27,27,28,28,29,29,30,30,31,31,32,32,33,33,34,34,35,35,36,36,37,37,38,38,